nep4_zbl 2 O Hf 
zbl 0.75 1.5
cutoff 8 5 250 57
n_max 6 6
basis_size 8 8
l_max 4 2 0
ANN 40 0
 -4.1253501e-01
  1.3837444e-05
  2.0324478e-06
  6.4190288e-05
  2.6629812e-05
  1.5281574e-05
 -1.0333712e-05
 -2.1153148e-06
  1.9035990e-06
 -2.2812585e-06
 -8.6985992e-06
  2.2965918e-05
  5.0912308e-06
  1.9083067e-05
  1.0852314e-05
 -6.6660738e-05
  9.4257348e-06
  2.1804512e-06
 -2.7147478e-05
 -8.1298995e-06
  1.0943182e-05
 -5.6808290e-06
 -1.0305378e-04
  1.8714969e-05
 -5.0884315e-05
 -4.0445375e-05
  1.4583741e-01
  4.7687828e-03
 -1.3059715e-05
  7.5730750e-05
  7.6845827e-05
 -3.6573801e-05
  5.9568943e-06
 -1.7198987e-05
  3.3779725e-05
 -1.7078142e-05
  2.8310478e-06
  3.3645782e-05
 -1.4623624e-06
 -4.6447362e-06
  2.0973524e-05
 -2.9879709e-05
 -1.9323036e-06
 -1.0019217e-05
  1.2995355e-05
  2.2163827e-06
 -2.0850875e-06
  6.0240018e-05
  3.3756776e-06
 -5.5566497e-06
 -2.5145249e-05
 -2.4496258e-06
  2.9236804e-05
  1.4191869e-05
  2.1236281e-05
 -7.3260147e-05
 -1.2189526e-05
 -2.1526218e-06
  5.2650023e-07
 -5.9674720e-05
 -4.0431660e-05
  2.4943178e-05
 -3.1399199e-05
  2.5601492e-05
 -4.6157256e-06
 -3.4512781e-05
  3.0731313e-05
  5.0368881e-06
 -1.4402057e-05
  3.6921715e-06
 -2.3531820e-06
 -2.6887635e-06
 -5.6919722e-05
  3.8356793e-06
 -1.5722857e-05
  3.3874287e-05
  4.2180065e-05
  7.6183976e-05
  1.9243855e-05
  1.7630169e-05
  2.6655263e-05
 -4.6965602e-07
  5.5812714e-05
 -1.7621765e-05
 -1.2224250e-05
 -1.9873134e-05
 -8.8730631e-06
  1.0599288e-05
 -8.7095950e-06
  1.3029959e-05
  4.7317694e-06
  3.3670494e-05
 -1.1082518e-05
  9.6639487e-06
  1.0850723e-06
 -1.2733433e-05
 -1.3556952e-05
  8.4864805e-05
  4.7391331e-06
  9.8686178e-06
  5.9799186e-06
 -2.1493288e-05
 -1.8934361e-05
 -4.1432213e-07
 -4.5441693e-06
 -7.8454850e-06
 -1.4906240e-05
 -1.5448131e-05
  2.6288852e-05
  1.5221866e-05
  5.2732016e-06
  1.4690896e-05
  1.4589647e-05
 -2.4479830e-05
  2.7480197e-05
  1.6773205e-05
  1.1327237e-05
  1.8581333e-05
  1.2808375e-06
 -1.5874277e-06
 -9.5396422e-07
  5.0140543e-06
  6.6306631e-05
  7.3077008e-06
  5.1733306e-05
 -4.2665932e-05
  4.0158260e-01
 -2.4624368e-02
 -9.3974471e-03
 -6.8308938e-01
 -5.0991450e-02
 -5.3162575e-01
  1.9051045e-02
 -2.0379381e-01
  1.0273542e-05
  3.5428200e-04
 -2.9845232e-01
  4.7705006e-02
 -5.7684485e-04
 -7.0304014e-02
 -2.0542926e-01
  1.4205056e-03
 -2.6488519e-01
 -9.4478033e-05
  7.2373398e-02
  5.6268476e-02
 -1.2166829e-01
 -3.3624363e-01
  3.2113594e-01
 -8.1763871e-02
  1.8135020e-01
  4.7347383e-03
  1.6313143e-02
 -2.2248428e-01
 -5.4990798e-01
  4.0298223e-04
 -1.1467916e-01
  7.7389576e-03
 -4.3286932e-01
 -3.2709089e-01
 -2.5217915e-02
  4.8164013e-04
 -1.8773029e-02
 -3.6608541e-05
  3.5124283e-02
  3.3792114e-01
 -2.0149496e-04
  7.9751644e-06
  1.4972069e-06
  1.1630621e-05
 -5.3769008e-06
 -5.7024099e-06
  1.9266508e-07
 -7.7275799e-06
 -1.0870074e-05
  3.6959655e-06
  1.1484674e-05
 -1.6763082e-05
 -2.9553659e-05
  1.0992444e-04
  7.5890875e-06
 -2.6673976e-07
  1.8808645e-05
  4.5731394e-06
 -3.6246643e-06
 -1.6651382e-05
 -2.1402453e-05
  2.9211355e-05
 -8.4229268e-06
 -1.1898034e-05
 -3.9130537e-06
  3.1325708e-05
  2.0692321e-05
 -2.0320731e-05
 -1.0876485e-05
  8.6928176e-06
  6.0342563e-06
  4.1864216e-05
  1.3721001e-06
 -4.1898598e-05
  3.2728745e-05
 -7.1692915e-07
 -1.5045644e-05
  9.8983219e-06
 -7.5534117e-06
 -1.2122059e-05
  3.0545423e-06
  9.9159943e-06
 -8.0958343e-06
  2.8214630e-05
  3.0780527e-01
 -2.2296947e-01
 -1.1479878e-01
 -1.8823235e-01
 -1.0517020e+00
 -7.4562925e-01
  4.1681609e-01
 -6.5644574e-01
 -2.2470355e+00
  8.9532591e-02
 -1.1932887e-01
  1.6008659e-01
 -1.4924263e-05
 -1.1515433e-01
  1.1047697e-04
 -4.5689857e-01
 -1.2436771e+00
  8.6531061e-01
  1.4149293e-01
  1.2475424e+00
 -6.9913191e-01
 -2.7846369e-01
 -1.9256006e+00
  2.0818392e-04
  3.5201070e-01
  1.1928043e-04
  3.5005027e-01
  3.5461041e-01
 -9.6857257e-02
  5.9190996e-02
 -2.0233088e-04
  7.2006875e-01
 -1.1007243e+00
  4.8330480e-01
  3.7716803e-01
  2.3229095e-06
 -3.7047976e-01
 -1.2365017e-05
  1.5404932e-04
  5.8796382e-01
 -1.7104357e-01
 -4.0811745e-05
 -7.4156981e-07
 -3.2230577e-01
  6.9450682e-01
 -2.1792242e-01
 -1.8250485e-01
 -8.3150424e-02
 -1.9251553e-05
 -2.3856595e-05
  6.4727730e-01
  2.0208336e-04
  9.9961925e-01
  9.7825855e-02
  4.2398595e-05
  5.0099614e-05
  1.6378759e-05
  1.7133875e-01
 -6.0309005e-01
  1.2479182e+00
 -3.4701891e-02
  2.5711274e-06
 -5.1165760e-05
  3.7084860e-06
  2.8277344e-01
 -2.1080787e-06
  1.7992063e+00
  2.2937495e-01
  7.8137523e-01
  8.1314348e-02
 -1.0482543e-05
 -6.9351637e-01
 -3.8463205e-02
  3.9388474e-02
 -1.8426140e-04
  2.5483200e-02
  5.5125195e-01
  6.2417465e-05
 -3.0812694e-06
  7.9033480e-06
  1.6301568e-04
  2.2239519e-04
  6.7451612e-05
  2.4373144e-06
  1.9180994e-05
  2.8586712e-06
 -2.5324047e-05
  4.0550649e-06
  5.5420228e-06
  5.6033705e-06
  3.6859463e-05
  1.7666149e-06
  3.4036800e-06
  1.9856006e-05
  1.4103521e-05
  1.2092052e-05
  1.3254981e-05
  3.1291340e-05
 -2.9789444e-06
  3.9764236e-06
 -9.5427749e-06
  8.1324051e-06
  1.8250941e-05
  4.4326363e-05
  8.0777716e-07
  2.4267936e-05
  3.5690024e-05
  8.6273094e-06
 -1.1707725e-05
  1.6636328e-05
  3.5398542e-05
  3.7013357e-05
 -1.2210626e-06
  9.4398238e-06
  1.6976910e-05
 -1.8706796e-05
 -1.7931168e-05
  6.4469159e-06
  1.5869215e-05
 -4.4436008e-05
  3.8771763e-05
  3.9476050e-05
  6.5511784e-05
 -4.0774908e-06
 -4.6325836e-06
  2.6083842e-06
  2.0971891e-05
 -2.0316007e-05
 -7.4505047e-06
 -6.6907538e-05
 -1.2871040e-05
 -1.3087290e-05
 -5.9839578e-05
  6.8200134e-05
  4.1066749e-05
 -1.0248942e-05
  6.2615873e-06
  3.2373937e-05
 -1.0960272e-05
  4.9482864e-05
 -3.3803917e-06
 -2.6716975e-07
  1.5438309e-05
 -1.9560001e-05
  1.4484929e-05
  4.2955035e-05
  1.6601765e-05
 -1.7709892e-05
  4.0018299e-06
  1.2253328e-05
 -4.8408069e-09
  2.4046441e-05
 -3.2145563e-05
  4.6228884e-06
  2.6115817e-06
 -2.6111033e-05
  1.4734943e-05
  9.1069123e-06
  2.1803509e-05
  5.2954883e-06
 -1.1032318e-05
  2.4330844e-05
  1.5819200e-05
  1.7425587e-05
 -2.9319566e-05
  2.8822755e-05
 -1.1549431e-05
  4.4179440e-05
 -6.5278327e-05
 -4.8121645e-05
  3.7719383e-05
 -1.1160959e-05
  9.2485914e-07
 -9.2461960e-08
  8.0415730e-06
  6.5769541e-06
  1.4514164e-06
  1.2026407e-05
 -2.2842056e-05
 -3.0116486e-05
  1.6206642e-06
 -1.1822305e-05
 -5.2476000e-05
 -2.8579805e-05
  2.7060534e-05
  8.4405128e-06
 -3.3018070e-05
 -1.7252862e-05
 -2.3187083e-06
  2.4674764e-05
 -2.7399770e-05
  4.0909440e-06
  1.6735761e-05
  2.1537346e-06
  7.3604779e-06
  2.1758040e-05
  1.3798856e-05
 -1.2980508e-05
  3.6754536e-05
  8.0286536e-06
 -2.0043213e-05
 -1.7559198e-05
 -4.5949906e-05
 -7.2118842e-06
 -1.9684401e-05
 -2.3489570e-06
 -3.0424926e-05
 -5.7858466e-05
  4.5832508e-05
  1.9844992e-05
 -6.5566401e-06
  2.6379796e-05
 -2.3130792e-07
 -3.0469103e-06
 -2.6788099e-05
 -1.9816298e-05
  5.8080077e-05
  5.5829141e-06
  2.2255330e-05
 -3.5979512e-05
 -6.6980738e-06
 -1.3659537e-05
 -1.8836445e-06
 -3.7811686e-05
 -9.5556607e-06
  1.7923408e-05
 -3.6069930e-06
  1.9711741e-05
 -1.2799836e-05
 -2.8305265e-05
 -1.1832795e-05
  8.6697846e-06
 -4.3856990e-06
 -1.0926620e-05
  7.6844617e-06
  1.7711038e-05
 -1.2042114e-05
  1.3822038e-05
  8.6481632e-05
  2.5011639e-05
  1.1315378e-05
 -7.5042240e-05
  1.6288381e-05
  4.2755884e-05
  4.8908860e-06
  4.7471538e-05
 -1.5120379e-05
  2.9573930e-06
  8.0000536e-06
 -3.3786891e-05
  1.7451262e-06
 -1.2774701e-05
 -6.8927562e-01
  3.1940562e-01
  6.4884073e-01
  1.5404190e+00
  1.2130070e-03
 -7.7925205e-01
 -6.1614180e-01
  1.0400564e-02
 -2.7296942e-01
  1.7079286e-01
  1.6389601e+00
 -4.4864810e-01
  5.8783986e-02
  2.1737082e+00
 -7.1693328e-05
  1.7783850e-01
  2.5404759e-03
  5.1056474e-01
  5.0546581e-01
  4.2223012e-01
  2.5201330e+00
 -3.0685127e-01
  3.7682272e-02
  5.4759951e-04
 -9.9024229e-02
 -1.9274517e-05
 -6.0584143e-02
  3.7676147e-01
  3.4664037e-05
  5.3632027e-01
  4.6734021e-07
  1.8999905e-05
  4.8880029e-04
 -1.1989427e+00
  6.7347997e-01
  2.0801730e-05
 -1.1158389e+00
 -7.1575800e-05
 -8.5410811e-02
  1.4484473e+00
 -1.2895538e+00
 -1.8398703e-05
 -1.9965131e+00
 -6.2161088e-01
  2.2057025e-03
  7.7942175e-01
  2.3081459e-01
 -9.8650104e-05
  2.5510144e-01
 -6.1842722e-05
 -9.2795235e-05
 -2.2515896e-05
 -5.9036345e-05
 -1.3523745e-04
 -1.2812027e+00
 -9.2074913e-01
 -1.5900516e-05
  3.0011031e-01
  2.1053078e-05
 -3.3285975e-01
 -2.7095038e-01
 -1.7259752e+00
 -1.4421713e-01
  8.7880460e-04
 -6.2967521e-01
  2.3188937e-07
 -8.8337557e-03
 -5.7860721e-02
 -1.4092884e+00
  1.2085768e+00
  1.4252769e-02
  3.4605894e+00
  6.4020505e-06
 -3.4564856e-01
 -3.7110818e-04
 -1.9985820e+00
  6.2022269e-01
  1.5976173e-05
  2.7821839e-01
 -3.3095082e-06
  5.6762287e-06
 -1.2507492e-05
  4.9422520e-01
  4.5391410e-03
  2.8933835e-05
 -3.1326152e-05
 -1.4601615e-05
 -6.0539653e-05
  1.0761440e-05
  2.6074507e-05
 -1.0108733e-05
 -1.5333037e-05
 -2.0192660e-06
 -6.1996534e-06
 -1.0866080e-05
  1.7633214e-05
  3.6328885e-05
  1.5263802e-05
  1.8748680e-05
  3.4996912e-05
 -4.3637763e-05
  1.6339043e-05
  1.4859590e-05
 -7.6778204e-05
  2.8606171e-06
 -6.2318461e-05
  6.4935586e-05
  1.1273224e-06
  1.8886010e-05
 -3.7693469e-05
  3.2164522e-07
 -5.1868155e-05
  3.5297813e-05
  1.6392929e-05
  2.7323204e-06
 -6.3782745e-06
 -1.6850810e-05
  5.8116020e-06
 -8.4119695e-01
 -6.4922842e-06
  8.0093396e-06
  7.8404682e-06
 -3.7296290e-06
  7.1432609e-05
  6.8171121e-06
 -6.1836115e-05
  3.1881282e-01
  5.3189170e-01
 -2.8376132e-01
 -1.9630312e-05
 -1.7630928e+00
 -1.6931289e-04
  7.0096397e-01
  2.6516476e-05
  3.1648427e-01
  5.3569016e-05
  4.4510256e-05
  1.8692803e-02
 -8.4249871e-07
 -5.5214588e-04
 -2.0370039e-01
 -5.4602440e-02
 -3.8307648e-02
 -7.5773522e-03
 -3.3832272e-05
  2.3550846e-01
 -6.4735286e-02
 -2.1881892e-01
 -1.6120496e+00
  1.4047134e-05
  7.2080910e-02
  1.9181633e-01
  7.6435119e-01
  6.7896344e-02
 -2.8393495e-01
 -4.3548706e-01
 -1.5910300e-06
  7.3457071e-05
 -4.0470772e-05
 -7.7070385e-01
  7.2390348e-01
  1.2906953e-05
 -1.1584222e-01
  4.5151419e-06
  9.2287926e-05
  5.9688129e-02
 -1.6458569e-05
 -6.2868903e-06
 -1.5344510e+00
 -1.5995365e+00
 -7.2413621e+00
  1.4972236e+00
  4.7608259e-01
  1.5438015e+00
 -7.9882994e-02
  7.3969460e-01
 -2.8023868e+00
  1.0050412e-01
 -5.6239259e-01
  8.1633574e-01
 -1.8785882e+00
 -1.5048157e+00
  1.1265608e+00
 -1.5253941e+00
 -1.4978369e+00
  3.1264566e-02
  2.0740364e-01
 -2.1037765e+00
 -5.2037799e-01
  8.4009051e-01
 -7.8309244e-01
 -2.1544261e+00
  2.0208134e-01
 -4.9029782e-01
 -2.4796915e+00
  5.3127503e-01
  1.1238749e+00
  1.0343149e-01
 -5.5222046e-01
  8.6853516e-01
 -1.6550905e+00
 -2.0254147e+00
 -1.6166309e-01
 -8.6867876e-06
 -2.4370058e-02
 -4.4383936e-02
 -3.4508190e-01
 -3.3757646e-05
  2.8810680e-01
  4.8146650e-02
  2.1071837e-06
  9.9429271e-06
  5.7370012e-06
  7.6504739e-06
  2.0588834e-05
 -4.4456319e-06
 -6.3410448e-06
  2.1467782e-05
  2.1299016e-05
  1.5841188e-05
 -1.0374655e-05
  1.2232357e-05
 -2.7499418e-06
  3.7322920e-05
  4.5476404e-06
  1.0537432e-05
  1.9617455e-06
 -5.0441689e-05
  7.9246769e-05
  2.3171659e-05
 -6.1798437e-06
 -5.6829405e-05
  1.4442077e-05
  3.6412666e-07
 -5.5894507e-06
 -6.4847168e-06
 -6.5726235e-06
 -3.7482489e-05
  5.1711595e-06
  3.3432563e-05
  1.4358759e-05
 -6.9597158e-06
  1.1043618e-06
 -1.4289682e-06
 -6.4749584e-05
 -2.2488868e-05
  7.7449604e-06
  8.7525019e-05
  1.0533526e-05
  5.2901458e-05
  1.2379122e-05
  8.2583429e-06
  1.3063015e+00
  1.1876410e+00
  1.5002029e+00
  1.5467325e+00
  3.8632661e-01
  7.5865531e-01
 -2.3256095e-01
  3.1240121e-01
  9.8030871e-01
  1.8302886e+00
 -9.9503875e-01
  6.9475955e-01
 -1.0634873e-01
 -2.8587475e-01
  2.9265252e-01
  1.1927085e+00
  1.0460324e+00
 -1.4514175e-01
  1.6053226e+00
  5.9569758e-01
 -4.5204848e-01
  5.5555731e-01
  1.0704751e+00
  8.2924521e-01
 -3.4609213e-01
  2.4829466e+00
 -1.0320996e-02
  4.4817634e-02
  5.8468807e-01
  1.5395952e+00
  5.7991761e-01
 -1.3209882e+00
  1.4096314e+00
  6.9918948e-01
 -1.0272927e+00
 -4.7086339e-04
  6.9351941e-02
 -4.1628166e-04
 -8.9583045e-05
 -1.3322964e-01
 -4.1530314e-01
 -7.5733811e-02
  7.5283557e-02
  4.1031068e-05
  5.7327592e-01
  1.6193330e-01
  7.0409805e-01
 -3.1881404e-01
 -2.3964477e-01
  1.5007857e-04
  3.4161139e-01
  2.2445347e-05
  3.1286860e-01
 -1.9602394e-05
  2.2511894e-02
  3.0618529e+00
  1.5044408e-05
 -2.2958840e-01
  2.7539209e-05
  6.8736678e-01
  1.5780632e-01
  3.7055570e-06
  1.4004032e-01
 -1.2859587e-03
 -7.6171535e-01
  2.2040638e-05
  1.5611677e-01
  7.8928297e-06
 -9.7982660e-03
  5.7683134e-01
 -4.7401827e-06
  1.2924349e+00
  1.8440449e-05
  3.7029549e-01
  4.9866822e-01
  3.6794671e-01
  2.8768009e-01
  1.3181840e-05
  1.3319812e-05
 -1.0033718e-06
  6.1802971e-06
  6.7344084e-03
 -2.2644465e-01
  5.6451166e-01
  7.1408540e-06
 -9.4665456e-06
 -3.8221333e-05
 -2.4992187e-06
  1.5927803e-06
  1.8423721e-05
  1.0254532e-05
 -2.9628056e-05
  1.5388800e-05
 -2.4041638e-05
  7.7807044e-06
  2.9057381e-05
 -2.5655856e-05
 -2.9828743e-06
  7.0408087e-06
 -8.3936220e-06
  4.6720386e-05
  2.4909412e-05
 -7.7562698e-05
  7.9024496e-05
  3.2286891e-05
 -1.6339136e-05
 -1.5372600e-05
  2.8801622e-05
  4.1264655e-05
 -3.5511630e-06
 -6.6081966e-06
  2.9610459e-07
  2.8694290e-05
 -8.4814237e-06
 -3.0298493e-06
  1.4835374e-05
 -1.8920171e-05
 -1.1843676e-05
 -1.7915409e-07
  1.7140390e-05
  6.3145571e-06
  2.8762826e-05
 -1.8744377e-05
  4.5751294e-05
  3.7698799e-05
  4.8824098e-05
  2.0418261e-06
 -3.4492214e-06
 -2.0706879e-05
  1.2214932e-05
 -7.0139495e-06
  1.2829879e-05
 -4.0171027e-02
  2.5510079e-05
  1.3106568e-06
  9.3399412e-06
  9.6785743e-06
 -1.5502810e-05
  1.4425521e-05
  6.3215321e-06
 -2.2575568e-05
 -6.7419041e-06
  3.7469519e-05
 -6.3897483e-06
 -3.2193173e-05
 -2.1721697e-01
 -6.4315682e-06
 -1.6925360e-05
 -8.2708331e-04
  5.4180138e-05
  2.3662984e-05
 -5.8010401e-06
  2.3407073e-01
 -8.2174112e-05
  1.7820701e-06
 -4.0819823e-06
 -1.9929392e-05
 -4.9422051e-05
 -2.0740741e-05
 -7.0940150e-06
 -2.4569234e-05
 -5.2070131e-06
  1.0588529e-05
  1.3453625e-05
 -1.7240563e-05
 -1.0889826e-05
  6.8618603e-05
 -5.6253530e-06
  2.9192370e-01
  1.7676578e+00
  7.4674594e-01
  1.8856626e+00
  1.0853087e+00
 -1.1919076e-03
 -2.6541188e+00
  5.0450017e-04
 -2.4903342e-02
 -1.3978888e-01
 -9.7823387e-04
 -7.5512373e-01
 -5.9323565e-06
  1.8831292e+00
  4.5128420e-01
 -7.3266351e-01
 -2.7537238e-04
 -5.4719388e-01
 -2.3924954e-01
 -4.5959318e-01
 -5.2284802e-05
 -1.3315160e-04
 -2.3022099e-01
  7.9029548e-01
 -5.6436788e-02
  5.3963935e-01
 -9.9400222e-01
  1.9409962e+00
  2.3294140e-04
 -3.6940357e-01
 -2.0653476e-06
 -1.2231610e-01
  5.5269796e-01
 -9.7260582e-01
  1.4946978e+00
 -2.1555641e-06
 -1.9543785e-01
  5.5845935e-06
 -9.7330441e-05
  1.1649278e-01
 -1.5532039e-04
 -2.4938665e-02
 -5.9803504e-01
 -4.1659782e-03
  1.7839725e+00
  1.2449812e-01
 -1.2147276e+00
 -3.0179963e-01
 -1.3533777e-01
  2.2239247e-02
 -6.5479881e-01
  3.7587020e-01
  1.0937024e+00
 -2.6942901e-03
  9.3184292e-01
 -1.2191950e+00
 -1.7079983e-04
 -6.2217689e-01
  1.5782334e-01
  6.8299443e-01
  5.9289747e-01
 -3.3992815e-01
 -9.4688785e-01
 -4.7917271e-01
 -1.2534069e+00
 -7.7149105e-01
  1.4435636e-01
 -1.6467606e-01
  1.4122794e+00
  9.3353736e-01
 -1.6539310e-05
  1.8112997e-02
 -1.6045262e-05
  1.9077885e-01
  2.9534599e-01
 -8.5304207e-01
 -5.7829809e-01
  6.4925676e-05
  1.8484886e-04
 -1.3647135e-05
 -7.5318513e-04
  6.5956229e-01
 -4.8769864e-01
  1.5025952e+00
 -2.0657832e-05
 -2.8125465e-05
 -1.6917010e-06
 -3.4235989e-05
 -1.3416347e-05
 -1.5470907e-06
 -8.9274199e-06
  3.2347114e-05
 -3.7902200e-06
  4.2253873e-06
 -8.5225838e-06
  2.9930525e-05
 -2.0036348e-05
 -1.3434021e-05
 -5.4343818e-06
  9.1787360e-06
  2.4415062e-06
 -8.2018942e-06
 -2.8105503e-06
 -9.4946399e-06
  1.6591961e-05
  6.3906077e-06
 -4.2762867e-06
 -1.9578627e-05
 -1.5150206e-05
 -4.7915664e-06
 -1.9244499e-05
 -1.3798794e-05
 -1.3827328e-05
  5.2252413e-05
  1.6531900e-05
 -1.0044123e-05
  3.9702386e-06
 -8.6596992e-06
  3.4643170e-05
  1.4739039e-06
  3.1316317e-06
 -2.4188905e-05
  9.6540111e-07
 -5.5393964e-05
 -1.1057517e-05
  1.3960612e-06
  9.6033323e-01
  1.1575948e-01
 -2.3538563e-05
 -1.3195113e+00
 -1.3024205e+00
  1.5078635e-07
  8.9508331e-01
 -2.2478896e-04
  1.5683956e-01
 -4.5816112e-01
 -3.1830747e-02
  5.6652302e-01
  4.5374638e-01
 -2.2531293e-01
 -1.1385265e-01
 -5.0482273e-01
  5.5314781e-06
  2.7265644e-01
 -3.7898424e-01
  1.1255049e+00
 -9.7533190e-01
 -2.3565250e-03
 -5.1218522e-01
 -1.7906703e-01
  3.5270043e-02
  7.3402465e-05
 -1.2500893e+00
  8.3952785e-01
 -8.4644655e-04
 -4.5283818e-01
 -7.9405285e-02
  2.7120599e-01
 -5.9352019e-06
 -6.8298495e-01
  1.6321932e+00
  9.3997951e-05
 -2.1993946e-01
 -1.0762096e-06
  2.5948325e-01
  3.3114440e-04
  1.9792616e-01
  3.3446462e-04
 -3.0277107e+00
 -9.2481178e-01
 -3.3510001e+00
  2.2309897e+00
  9.8475158e-01
 -2.9487988e-01
 -1.2665993e+00
  2.6876274e-01
 -1.9866081e+00
 -4.8809922e-03
  5.3725857e-01
 -5.0996321e-01
  9.2760730e-01
  2.2163875e+00
  5.2754897e-01
 -1.4556882e-01
  1.3235970e-01
  2.3348321e-05
 -3.8425487e-02
 -5.6410366e-01
  1.9898022e+00
  3.8173571e-01
 -5.3069967e-01
  1.8387497e-04
  8.7384135e-02
 -1.4571018e+00
 -8.9575523e-01
  1.4623181e+00
  2.1450862e-01
  2.7051542e-03
  7.0554107e-01
 -2.0980062e-01
 -1.3147411e-01
 -2.3139200e+00
  1.1352588e+00
 -4.1357311e-03
 -2.0319219e-01
 -2.4185765e-03
 -3.9881495e-01
 -1.2249636e-04
 -1.3009898e-01
 -5.1640242e-01
 -1.4459666e+00
 -3.5710651e-01
 -6.5038884e-01
  6.5485942e-01
 -1.1436641e+00
  2.4704316e+00
  1.8272533e+00
  6.8480420e-01
  7.3617983e-01
  1.0357510e-05
  8.7566793e-01
 -7.4431062e-01
  5.8939502e-02
 -1.4076266e+00
 -1.0167677e-06
  1.9865164e+00
  4.4315717e-01
  8.8524300e-01
 -3.8753998e-02
 -4.1681662e-05
  1.6653687e+00
 -5.0631570e-06
  1.4526030e+00
  4.7239566e-01
 -4.5103152e-05
 -4.3859249e-03
  1.4724245e+00
  1.6729535e-01
  1.8450117e-04
  1.0020452e+00
  2.7662160e-02
  2.4382605e-01
 -3.6378966e-05
  1.2764084e+00
  2.2380021e-01
 -2.2577991e-05
 -3.2955191e-05
  2.4879150e-06
  5.5996035e-05
 -1.3665148e-04
  8.9988962e-06
 -2.2389298e-05
  1.5560792e-05
 -1.5324154e-05
  2.2290185e-05
  5.1946903e-05
  1.4493823e-05
 -8.9823607e-06
  4.4376327e-05
 -1.7521757e-05
  3.2415533e-05
  3.9218074e-05
 -3.4623728e-05
 -2.9792764e-05
 -7.2753669e-06
  5.7366719e-06
  8.4433414e-06
 -1.6221793e-06
 -1.2607258e-05
 -7.6511678e-06
  1.4713834e-06
  2.4463561e-05
  9.7302815e-05
 -7.7465429e-06
  1.1713794e-05
 -2.3999686e-05
 -6.9201965e-06
 -1.1741995e-05
  2.8063641e-05
 -9.1595339e-06
 -9.6985523e-06
  5.9771774e-06
  2.1463477e-05
 -8.7003154e-06
  3.1556483e-05
  3.2849352e-05
  4.0413677e-05
  1.4808382e-05
  1.5220831e-05
 -1.9643736e-05
 -5.6968547e-05
  7.0085989e-06
 -1.5266072e-05
  2.5106374e-07
 -2.8865893e-06
  5.6272361e-06
  7.1887466e-06
  8.0237623e-06
 -1.0759857e-05
 -6.4912717e-07
 -2.2406295e-05
 -1.0887263e-06
 -3.1038078e-05
  1.5618225e-05
  7.8542122e-05
 -3.5352214e-06
  6.5663757e-05
 -1.0061603e-05
  3.9320730e-05
 -8.2361485e-06
 -1.1750615e-06
 -2.3593604e-05
 -3.8088234e-05
 -1.2313708e-04
 -9.6646891e-06
 -7.0602896e-06
  3.1473730e-05
  8.9550158e-05
 -3.9024759e-05
  6.2218064e-06
 -1.4964353e-05
  3.5147920e-01
 -1.2561374e-05
  1.5456199e-05
 -5.7033189e-06
 -3.2658281e-06
  2.4222789e-05
 -1.3497754e-05
  1.3147724e-05
 -1.3169197e-05
 -8.4907097e-06
 -8.5040128e-06
 -6.2372681e-05
 -6.6959627e-05
 -8.8021716e-06
  1.2451665e-05
 -5.0528861e-06
  9.0122467e-06
 -4.6242335e-06
 -1.0784552e-05
  4.8813645e-06
  2.5461564e-05
 -1.1406310e-05
  2.3006916e-05
 -3.0889245e-05
 -5.1046027e-06
  7.0006565e-05
  2.4898931e-05
 -7.7960012e-06
  2.5377487e-05
 -1.0136610e-05
  3.3877070e-05
 -1.8145653e-05
  1.0553472e-05
  4.3878231e-06
  1.2898260e-05
  6.7802932e-05
  1.7216230e-06
 -2.6200500e-05
  5.4216252e-06
 -1.7439625e-06
 -1.0786404e-05
  1.1349575e-04
  1.0458608e-04
 -1.1077358e-05
 -1.5919486e-05
  2.1654279e-07
  1.5413207e-05
  1.2142659e-05
  1.0282194e-05
 -5.4329062e-06
  2.2921296e-05
  4.5584766e-06
 -1.5087456e-05
  5.3523836e-06
  6.1668550e-05
 -4.3964847e-06
  4.4962992e-05
 -1.8146130e-01
  3.5224821e-02
  5.3657956e-02
  8.7510967e-01
  4.8492293e-05
  3.5612431e-01
 -2.2808836e-01
  5.2021730e-01
  1.6649265e-04
 -1.5638332e-04
  2.2747624e-01
 -1.1175315e-02
  8.7015763e-02
  6.6058451e-01
  2.3556577e-01
 -2.0569204e-03
  7.1412846e-02
 -3.4463304e-04
 -2.0105654e-01
 -2.6688533e-05
  7.6989105e-05
  2.0361125e-01
 -1.6853198e-01
  5.3028810e-01
 -3.2524866e-01
 -1.0911581e-03
  4.9420863e-01
 -3.7750520e-02
  3.2649094e-01
 -4.6296015e-02
  1.0037009e-01
 -2.6387116e-01
  1.7058989e-01
 -1.1819367e-05
  2.6621318e-01
 -2.0239556e-04
  2.9072406e-02
 -9.7680550e-06
 -2.1101037e-01
 -2.9712427e-02
  9.1643509e-05
  2.3854052e-05
  2.9681414e-05
 -9.6282440e-07
  1.3937334e-06
  1.4900511e-05
  9.3360213e-06
 -3.2088137e-05
 -3.8624557e-06
  4.3469234e-05
 -9.3878925e-06
 -7.0887181e-05
  4.8241586e-06
 -4.3927423e-05
  2.4003508e-05
 -6.0663269e-06
  2.3412185e-05
  1.2263466e-05
  1.0677204e-05
 -9.9135823e-06
  1.3767884e-05
  3.9637489e-05
  6.4020428e-06
 -1.7739952e-05
 -6.2524732e-06
 -1.4053963e-05
  6.2189893e-06
  1.0746729e-05
 -3.0121959e-05
 -1.3603066e-04
  1.4550586e-05
  3.9783862e-07
  3.6590245e-05
  8.0146974e-06
  2.6121047e-06
 -1.3779623e-05
 -2.0227537e-07
  6.0693566e-08
  3.3576915e-05
  1.0539785e-05
  4.2976666e-05
 -3.0525298e-05
  4.2951051e-06
 -7.0899487e-06
 -1.1649997e-02
 -1.7981974e-05
  1.4958906e-05
 -3.0933029e-06
 -7.1508851e-04
  7.9311207e-02
 -9.9985779e-04
  5.5365522e-06
 -2.4977206e-05
 -6.4930813e-05
  3.3078048e-01
  6.4289907e-06
  2.0101143e-04
  2.7916243e-04
  5.5413195e-05
 -4.3907706e-04
  2.6273644e-01
  1.8594613e-02
 -3.8259609e-03
 -6.4167316e-04
  1.0414559e-05
  4.4209539e-04
 -4.7644514e-01
 -3.4018227e-05
 -1.2212394e-04
 -3.0467430e-05
  1.7581441e-01
 -7.9960072e-01
  3.9968514e-04
  1.9979215e-01
 -8.3194900e-06
 -1.8644449e-04
  7.3059646e-06
 -1.5354444e-05
  1.3157548e-01
  1.1442486e-05
  2.1421454e-05
 -1.1891732e-04
 -2.8020465e-06
 -1.5832029e-01
  3.6337244e-04
  4.4754976e-05
 -1.5397491e-06
 -9.2863220e-06
 -3.5321274e-05
 -2.5726882e-05
 -1.2619144e-05
 -2.1778771e-05
 -1.3207413e-05
  9.4199631e-06
 -2.0568217e-04
  1.4639731e-05
  8.6733635e-06
 -5.0139743e-06
 -1.3561881e-05
  8.3852374e-06
 -9.2414502e-06
  6.0236089e-06
  8.9204050e-06
 -8.1325215e-06
  8.1746330e-06
 -1.4565228e-05
  9.7723951e-06
  8.9145087e-06
  8.6967239e-06
  7.9998858e-07
  9.0582125e-06
  1.5079652e-06
 -1.1351643e-05
  9.4037368e-06
  2.7130940e-05
  1.4247304e-05
  1.1780907e-05
 -5.9382887e-06
  1.3684096e-05
  1.0034807e-05
 -2.9340806e-06
 -9.7207567e-06
  1.0614340e-05
  9.9724912e-06
  9.4661964e-06
  7.8111334e-05
  9.6127951e-05
 -1.2005767e-05
  4.1414073e-06
 -5.4248922e-05
 -9.9475183e-06
  1.6525850e-05
  1.6265036e-05
  6.7007655e-05
  8.8724219e-06
  8.2345068e-06
  3.3386634e-06
 -4.6065663e-05
  1.0867917e-05
  1.3896486e-05
 -7.6602146e-06
 -1.3865864e-05
  1.5515670e-05
  2.7952830e-05
  1.9585432e-05
 -5.5870214e-06
 -1.8467547e-06
 -1.4061959e-05
  1.0500999e-06
 -1.2724325e-05
 -3.5953590e-06
 -3.0430721e-05
  3.7193193e-05
 -4.0109485e-06
 -1.1223291e-05
 -3.9204111e-05
 -3.9546077e-05
 -6.7050842e-06
 -1.8969135e-05
 -1.4161251e-05
 -1.1931637e-05
  1.5275495e-05
  4.6576547e-06
 -1.5722090e-04
 -1.5952282e-05
  1.9721470e-05
 -1.2866792e-05
  6.0638049e-06
  4.4135068e-05
  6.4352653e-06
  7.8273024e-06
 -1.2733946e-05
  1.9781633e-05
 -1.9728790e-05
 -1.2104573e-05
  5.7216903e-06
  4.4275181e-05
 -1.4289491e-05
  7.2659645e-06
 -2.2002432e-06
 -2.9819294e-06
  9.0103749e-06
  6.5417571e-06
 -1.5803966e-05
 -8.8993238e-06
  8.5450074e-06
 -1.7890183e-05
  3.9642428e-06
 -1.0604772e-04
  2.9608365e-05
 -6.1189380e-06
 -7.9295287e-06
  2.5661384e-05
 -2.1515090e-05
 -3.0030225e-05
  9.8412675e-06
  3.5763971e-06
  3.9015296e-05
  8.0497475e-06
  1.1532148e-05
 -4.4909966e-06
  4.0778184e-05
  7.9174288e-06
 -4.1230942e-06
  4.3263222e-05
 -2.3341721e-05
 -5.4241441e-06
  2.2926317e-05
 -1.1445894e-06
 -2.7804415e-05
 -2.1887790e-06
 -1.6534421e-05
 -7.2707207e-06
  5.3599324e-05
  8.8733820e-08
  3.0128593e-05
 -1.1690844e-05
 -4.1216204e-05
  3.2119315e-05
  4.4570719e-05
 -1.4457639e-06
 -3.7769814e-07
  1.0789036e-06
 -4.7913304e-06
 -4.1834896e-06
  7.3435738e-05
 -4.7405356e-06
 -2.7107788e-05
  7.4884788e-06
  3.9249931e-06
 -3.6161768e-04
  6.7771725e-05
 -3.4099880e-06
  2.1023396e-05
 -1.1907459e+00
 -6.9515321e-05
 -4.0017785e-05
  1.3324279e-05
  1.4422582e-04
 -2.0352302e-01
  3.3081465e-06
  4.0976144e-04
  2.5512063e-06
 -5.7115608e-06
  4.1603358e-05
  1.2453298e-05
  3.9651754e-01
 -1.1795579e-05
  2.0592183e-06
  7.7168697e-05
  2.1100197e-05
 -3.1442703e-06
  5.3553235e-06
 -2.1750147e-06
 -7.3411665e-04
 -3.1331016e-05
  6.4454958e-05
  8.8306159e-01
  9.0932459e-05
  9.7919023e-05
 -5.6414312e-04
  3.5969464e-07
  4.5750523e-05
 -1.5184448e-05
 -1.4806658e-04
 -3.9843279e-05
 -7.6172910e-07
  1.0507653e-04
  1.3636343e-05
  5.5341321e-01
 -3.4017526e-06
 -2.8022956e-05
 -8.2662082e-05
  1.4748064e-05
  1.1497117e-05
 -1.2695518e-06
 -2.0305686e-06
  3.4898592e-04
 -1.1190274e-01
  3.0711544e-05
  2.3713087e-01
  7.8995264e-01
  4.5078614e-05
 -1.7692377e-01
  9.0416779e-06
 -8.7174478e-05
  1.8477027e-04
  7.8924590e-01
 -9.3489997e-02
  2.2495287e-05
  2.4433988e-05
  5.9061131e-06
  7.9471884e-06
 -4.8591223e-06
  1.3093953e-04
 -1.1248837e-05
 -6.4219199e-07
 -1.2158749e-05
  1.1982084e-05
  6.8689224e-05
 -5.1965286e-05
  3.6337096e-05
  1.1939351e-06
  3.3787557e-05
 -1.2124443e-05
 -3.9487099e-06
 -1.6080855e-06
  8.1802709e-06
 -1.3314168e-05
 -1.0318162e-05
  1.4840601e-05
 -4.6550264e-05
  1.0289866e-05
  1.0600431e-05
  1.4182408e-05
 -7.5415519e-06
  6.0121261e-06
 -9.7980483e-06
  4.4447865e-05
  3.7790523e-05
 -3.4258570e-04
 -2.3344457e-05
  1.0368906e-05
  2.6633019e-05
  4.9800760e-06
 -8.3464793e-06
 -1.1851125e-05
 -3.0479172e-05
  4.2237250e-05
 -7.0373922e-06
  1.4963060e-05
 -5.5625147e-05
  1.6580980e-05
  4.0426073e-08
 -3.0390463e-06
 -5.1158527e-06
  3.6295238e-05
  2.1061835e-06
 -2.8073970e-02
 -1.1250142e-01
 -9.6658647e-01
 -2.5153923e+00
 -5.6028092e-01
  2.6228062e-07
  1.5884842e+00
 -2.9836547e-01
  7.2058618e-01
  2.9463499e-06
 -7.0096356e-01
  1.5466520e-01
  1.9433719e-01
 -1.0324616e+00
 -1.3569283e-03
 -1.5440538e+00
 -2.5412180e-02
 -7.5846545e-02
 -3.6652107e-02
 -2.6698667e-01
 -1.7391586e+00
 -1.6269615e-01
 -5.2817637e-01
 -2.0541868e-01
  8.5668912e-04
 -1.0970470e+00
  9.0797924e-02
  7.5178057e-01
 -4.2316985e-01
  2.9909158e-01
 -3.1467546e-02
  2.2864673e-01
 -1.0124701e+00
  4.1684479e-01
 -1.7856052e+00
  7.8460544e-05
  2.3790163e-03
  4.9054546e-05
  9.8492272e-02
  1.6740340e-05
  4.5411295e-01
  2.5482752e-04
  7.0704293e-05
  3.7438040e-05
  7.3144605e-05
 -1.4169402e-03
 -1.0315441e-05
 -6.7139977e-01
  1.8511765e+00
 -1.6686445e-05
  3.4550580e-05
 -1.3061870e-05
 -1.0085164e-05
  2.1519818e+00
  3.8480991e-01
 -7.6814246e-01
  4.2740157e-01
 -6.7151368e-01
  7.2736598e-06
  1.8816431e+00
  1.8262175e+00
  5.2938722e-05
  3.4508487e-06
 -5.7387316e-01
 -1.4787568e+00
  5.9222049e-05
  7.9799855e-01
 -3.6950982e-01
 -3.2105136e-01
  2.3557108e-05
  2.9145098e-05
  3.2669764e-06
 -2.0224354e-01
  2.8353919e-05
 -9.4942480e-01
 -1.2688613e-05
 -1.0305022e-05
 -4.9508885e-06
 -9.7731400e-01
  1.2860863e-02
 -2.1313753e+00
 -5.4977775e-01
  2.6636514e-01
  5.0506475e-05
  1.2263507e-05
 -1.1911119e+00
 -6.7108140e-06
 -1.2197930e+00
 -1.4675325e+00
 -1.1557335e-05
  1.4752289e-05
  4.0455237e-05
 -2.9464437e-02
 -2.0715830e+00
  6.9569999e-01
 -1.9584179e-01
 -8.3951795e-01
  3.5945160e+00
  9.2953393e-05
  2.6192732e+00
 -1.2824519e+00
  1.5432151e-05
  1.9628932e-01
  8.2529593e-01
 -2.3202682e+00
  1.0758110e-05
 -1.4601188e+00
  1.4375529e+00
  1.6827444e+00
  1.0243900e-05
  2.0165013e-01
 -3.5686662e-05
  1.2146225e+00
 -1.6781318e-05
  8.9640540e-01
 -5.3201302e-06
 -2.6337355e-05
  3.4727782e-05
  3.7533861e-01
  4.9970427e-01
 -5.2948727e-04
 -8.8732952e-01
 -2.0460439e+00
 -8.2272396e+00
 -1.4075840e+00
 -6.0987216e-01
  1.5684525e+00
  3.1478832e+00
  2.7330634e-01
  6.8394506e-01
 -1.0339149e+00
 -3.4084117e-01
 -5.4722182e-02
 -1.8792642e+00
 -3.3506641e-01
  4.2319772e-01
  9.5720965e-01
 -7.3732704e-01
 -9.8285869e-02
  7.5394318e-02
 -1.0604788e+00
 -3.6966175e-02
  1.0065687e-01
  1.0674812e+00
 -8.8771649e-02
 -8.9599770e-01
  4.1768201e-02
 -3.7320593e-01
 -5.1868016e-01
 -4.5846540e-01
  8.9021349e-01
 -4.3371844e-01
 -1.2058481e+00
 -1.6578487e+00
 -8.4968559e-02
 -1.0410774e-01
  1.8732799e+00
  2.6393741e-01
 -2.2191408e-03
 -2.0744372e-04
  4.1913792e-01
  5.7384461e-02
 -5.8859639e-02
 -1.9844656e-04
  2.3455796e-05
  2.0210902e-05
  8.7451408e-06
  6.9020580e-06
  1.1297227e-05
 -1.1634737e-06
 -6.4410124e-05
  2.0615329e-04
  1.0294566e-06
 -1.4737401e-06
 -3.3749726e-05
  2.0603613e-07
  5.2680934e-06
 -1.6580319e-05
  8.6602586e-06
 -5.0085302e-05
  2.6539512e-05
  1.2884767e-05
  3.1094627e-05
  4.9356047e-05
  4.1414387e-06
 -2.8344480e-06
  1.3323276e-05
  4.4705062e-06
 -1.1513155e-05
 -1.1344140e-05
 -7.1144805e-06
 -4.8404927e-06
 -1.4155959e-05
 -7.0293572e-06
  3.5139367e-06
 -3.2514788e-05
  1.0929165e-05
 -7.7700670e-06
  7.8049425e-07
  3.6338627e-06
  2.1296096e-06
 -1.4105063e-05
 -6.8701961e-06
 -2.6154568e-05
  1.0537125e-05
  1.2005640e-05
  6.6981906e-05
 -3.7962459e-07
  9.0883987e-07
 -1.0002742e-05
 -4.3308741e-05
  1.5200573e-05
  7.7989598e-06
 -2.0006268e-05
  5.3589820e-06
 -3.2712029e-05
 -8.2245106e-06
  1.0796801e-05
 -4.6326541e-06
 -3.4186889e-06
  1.3413397e-05
 -6.3155303e-06
 -3.4000710e-05
  7.5438984e-06
 -4.0256320e-05
  1.8128345e-05
  5.9389673e-05
 -1.7235094e-05
  5.4902926e-06
  2.8625337e-04
  3.2356459e-06
 -2.0284571e-05
 -7.7956511e-06
 -6.2083341e-06
 -1.2146053e-05
 -3.3385218e-06
  1.0698979e-05
 -8.6407854e-06
 -4.2428005e-06
 -9.9756719e-05
  4.0740691e-05
 -4.0053335e-05
  3.0478404e-05
 -6.7162437e-06
  7.0504298e-05
  1.3055541e-05
 -2.3648213e-06
  3.2383141e-05
  1.4994174e-01
 -8.2927197e-01
 -3.1691974e-01
  6.6637623e-01
 -1.7406183e+00
  2.3864761e-02
 -4.6913363e-02
 -8.4334247e-02
 -7.3530143e-01
 -8.9067060e-01
  2.0087771e-01
 -4.3809360e-01
 -1.7773028e-06
 -1.0528966e+00
 -1.8348482e-02
 -3.7134472e-01
  6.5302886e-02
 -7.8945443e-02
  3.3330128e-02
  1.6054864e+00
  7.4385739e-06
 -3.9213087e-02
 -2.8471741e-01
 -1.0902748e-02
 -1.7334139e-02
 -1.9026853e-02
  1.9154197e-01
 -4.2816123e-01
  2.4744752e-01
 -1.4500903e-02
  7.0087206e-01
  3.3716372e-01
 -1.3630548e-01
  8.7998521e-01
 -1.5110750e-01
  1.0079044e-05
  3.5254024e-02
 -1.8958862e-01
  1.4279357e-05
 -7.9211768e-06
 -1.4582028e-05
 -5.0993706e-04
  4.3121072e-05
  1.4718187e-05
 -3.1869204e-06
  7.4218033e-06
  7.8919820e-06
 -3.4935201e-05
  4.7187100e-06
  1.1135333e-05
  4.2373340e-06
  1.1382774e-05
  9.6629565e-06
  2.2316165e-06
 -8.1912021e-06
 -8.4453368e-06
  2.3550123e-05
 -2.6129623e-05
  3.8540322e-05
 -5.7324241e-06
 -3.9280931e-06
 -1.6184185e-05
  5.4967240e-06
 -7.0291298e-07
  5.2939372e-06
  1.0913272e-05
 -3.0880310e-05
  4.2038333e-05
  9.5796004e-06
 -8.3311043e-06
  4.3148116e-06
  1.3594000e-04
  2.6618791e-05
  2.0859216e-05
  1.2973477e-05
 -1.5492917e-05
  1.1425152e-05
  9.4205308e-05
  1.3581083e-05
  2.4658957e-05
 -4.4174449e-05
 -6.0846134e-05
  1.2088478e-05
  1.2124698e-05
  6.9109669e-06
 -2.5069572e-05
 -5.7796933e-05
 -7.5573400e-05
  8.1657190e-06
 -1.6542486e-06
  4.6307741e-06
 -3.8747235e-06
  5.9338395e-06
  2.7925515e-05
 -2.2323934e-07
 -7.9947977e-06
  1.9536296e-06
  3.8885068e-05
  2.1616037e-05
 -3.7524940e-05
  1.7242106e-05
 -2.4110290e-05
  2.3854577e-06
 -5.0979477e-05
 -4.2155862e-06
  7.8783360e-06
 -1.0561412e-06
  5.3824679e-06
  5.2234159e-06
  5.6248218e-06
 -1.6534508e-05
 -3.9083830e-06
  5.4933040e-05
  1.3709493e-05
  1.2818976e-04
  1.3378160e-05
 -5.5111468e-06
 -9.3224517e-06
 -4.6474302e-06
 -6.6656230e-06
 -1.0495793e-05
 -3.1683743e-05
  8.6813850e-07
  7.8095200e-06
 -2.0292464e-04
  1.1293569e-05
  1.2944652e-05
  2.4095931e-07
  1.3782728e-06
 -9.0718013e-06
  1.8232546e-05
  1.2517248e-05
 -2.4538917e-07
  5.3389094e-06
 -4.5676647e-06
 -4.3251253e-05
  1.8311848e-05
  4.9755221e-07
  2.8798431e-05
  2.6897424e-06
 -6.8611344e-06
  8.8323286e-05
 -1.4293129e-05
 -7.8832782e-06
  6.6396001e-06
  1.5712789e-05
  3.3836131e-05
  2.1526117e-05
  4.9335149e-06
  1.1254825e-05
  2.0281773e-06
  3.5315779e-06
 -1.4135207e-05
  5.5799710e-06
  1.3076383e-05
 -1.4419091e-05
  8.0598932e-07
  5.5389646e-06
 -1.2849951e-05
  1.0979077e-05
 -4.3528504e-05
 -5.4735792e-05
  6.8491529e-05
 -1.0184950e-05
  3.0575149e-05
  6.3413072e-06
  7.6297976e-05
  4.7865451e-06
  9.7684306e-06
  1.8687937e-05
  2.1061251e-06
  7.0756369e-06
  2.2580701e-07
  6.4159512e-06
  2.0738808e-05
 -1.4206342e-05
  2.1210137e-06
 -1.0266303e-05
  1.4358174e-05
  2.8972718e-05
  3.3353321e-05
 -1.0924134e-05
  1.0692107e-06
 -1.0667866e-05
 -1.6066912e-07
  6.3144762e-06
  2.0311611e-05
 -1.4421806e-05
  4.2975866e-05
  4.2685820e-06
 -3.6841164e-05
 -7.2696370e-05
 -3.8098413e-05
  3.1432257e-06
  1.2337016e-05
 -1.0507015e-05
  2.1579922e-06
  1.5255127e-06
  5.3254053e-06
 -1.0252601e-05
  1.1018329e-05
 -6.7104179e-06
 -1.3774210e-05
  5.1336242e-06
 -2.7360164e-05
  7.3183837e-05
 -4.5580754e-07
  4.8438719e-06
  4.5232107e-05
  1.3925333e-05
  1.4844112e-05
 -5.0365843e-06
 -6.2236497e-05
  1.7854974e-05
 -1.3469803e-05
  1.2628999e-05
 -8.4347930e-06
 -1.2109010e-04
 -3.6511745e-05
 -2.2985171e-06
  3.2359972e-06
 -2.0757136e-05
 -1.3346172e-05
  3.9434399e-06
 -4.7638241e-06
  4.5985176e-05
  1.6747381e-06
 -1.4384284e-05
  1.9141520e-05
 -6.4628880e-06
 -5.5922260e-06
  1.4647806e-05
 -6.5474051e-06
 -2.0583752e-06
 -3.9094175e-08
 -9.5139239e-06
  1.2373108e-05
  8.0965810e-06
 -2.1526789e-06
  8.0572581e-06
 -4.2981374e-05
 -9.8617306e-08
 -1.7686676e-05
  1.6290394e-06
  1.3721847e-05
  6.4531077e-06
  1.1492570e-05
 -1.4488166e-05
  3.2614325e-06
 -6.2741165e-06
  9.0714448e-06
 -1.7304108e-05
  9.3566005e-06
 -1.7712378e-05
  2.7573584e-05
  9.2468850e-05
 -8.0221171e-06
 -3.4955960e-06
 -2.8539604e-05
  1.3950224e-05
  2.9088493e-05
 -9.0312551e-06
 -1.9746501e-05
  6.7660635e-06
  6.5244021e-05
 -2.3650373e-06
  1.3151629e-06
  3.0799445e-05
  1.0052527e-05
 -3.5428054e-06
  8.9606528e-06
 -5.7656416e-06
 -1.8724766e-05
  3.2131825e-06
  3.9809111e-05
 -1.3915599e-05
 -5.1003863e-06
 -1.2072634e-05
  1.1660548e-05
 -6.9482226e-06
  2.2770715e-05
  7.2799476e-06
  1.7578157e-05
 -4.6604569e-06
 -1.3201528e-05
 -8.9002224e-06
 -8.2378256e-06
  6.8343352e-06
  1.6261884e-05
 -1.1128669e-05
 -1.2556212e-05
 -5.2059481e-06
 -2.6423952e-05
  8.8118577e-06
  1.1177382e-05
  7.1226793e-07
 -1.3727142e-05
  1.2219414e-05
 -1.0954042e-05
  1.1722106e-05
 -1.1674654e-05
  1.3703506e-05
  4.5804654e-08
 -9.7199563e-06
  2.7699900e-06
 -7.4965459e-07
 -1.3319391e-05
 -9.0672747e-06
 -6.5809672e-07
 -2.9211857e-05
  2.5759922e-05
 -1.1233064e-05
 -1.9427327e-05
 -4.6537220e-06
  3.7969414e-06
 -2.3680359e-06
 -7.0525588e-05
 -5.5766421e-05
  7.5542753e-06
 -4.4017252e-05
  7.7743471e-06
 -5.5014771e-05
 -2.1317001e-05
  1.2452850e-05
  4.4874294e-05
 -7.7791783e-06
 -2.0420691e-06
 -1.4099388e-05
  2.2126646e-06
  6.8919767e-06
  3.2751595e-05
  1.4412641e-05
  4.2218539e-07
 -1.6343000e-05
 -2.3710109e-05
  5.9549900e-05
  2.7990189e-05
 -3.6411839e-05
 -4.3741938e-06
  8.2131828e-06
  4.4276367e-05
 -3.6183299e-06
  7.4652503e-06
  8.6350547e-06
  3.5335465e-06
  4.0202161e-05
 -1.2395965e-05
 -1.1929678e-05
  8.9103469e-07
  3.2069838e-06
 -6.6178627e-06
 -3.2407138e-06
 -5.6561230e-06
  4.4508477e-07
  1.4593564e-05
  8.1321523e-06
 -3.4353005e-05
  6.1472633e-07
 -1.0838346e-06
  7.2544813e-06
 -4.2514807e-06
  1.3954527e-06
  3.7794514e-05
 -5.2138112e-06
 -1.0710907e-05
  3.7091252e-06
 -6.1251017e-06
 -8.3467221e-06
  3.0411738e-05
  2.7598526e-05
  2.0585742e-07
 -1.3566466e-05
 -4.0208124e-06
  9.2521404e-06
 -7.8749981e-06
  1.4559962e-05
  1.1193291e-05
  3.8404174e-05
  9.5781881e-01
  2.6283627e+00
  2.2284200e+00
  1.2059333e+00
  6.4213741e-01
 -1.1701783e+00
 -3.7341709e+00
 -1.4471420e+00
  1.1603400e-02
  3.9816588e-01
  6.0673475e-01
  1.2338395e+00
 -3.6998119e-02
  3.4417280e-06
 -1.1620115e+00
  4.8271269e-02
  1.6696763e+00
 -8.8764226e-01
  6.5293682e-01
  1.9460565e-01
  1.4180012e+00
 -2.0125186e+00
  5.8712173e-02
  6.6708744e-01
 -7.4124372e-01
  2.4165668e+00
  2.0548730e+00
  6.1086668e-03
 -1.3372816e+00
  3.1158730e-01
  2.0036356e+00
  1.0955027e+00
 -1.4749894e-01
  1.0162922e+00
 -2.8508650e-02
 -4.3880311e-05
  5.1570988e-01
 -5.6925619e-01
 -5.3002249e-04
 -3.4525532e-05
 -1.2360923e-01
 -3.0635350e-05
  8.0209820e-06
 -9.4249270e-05
 -2.4076794e-01
  5.5985511e-06
  1.2736277e-05
  1.0116951e-01
  2.1549382e-03
 -4.0950299e-06
 -5.8772834e-04
 -5.7861057e-06
  1.0083594e-04
 -7.2007111e-05
  7.3248098e-05
 -1.5090084e-05
 -1.5999079e-02
 -1.0539938e-02
 -3.1835545e-05
 -5.3276960e-02
 -1.2353627e-04
 -9.5319070e-02
 -1.0697168e-04
 -1.2688581e-05
 -4.7415062e-03
  1.2781404e-05
 -7.4663410e-05
 -1.4233834e+00
  6.7761190e-02
 -1.5149081e-04
  2.3175845e-01
 -3.5738662e-02
  3.6231093e-05
  2.7912560e-01
  1.2755283e-06
  6.7057729e-02
  3.5473788e-01
  1.0263680e-06
 -2.4149937e-05
 -1.1908108e-05
  4.3593405e-05
 -4.3369932e-06
 -1.5118690e-05
 -3.4370529e-05
  6.5388417e-01
  1.6128449e+00
 -5.4922563e-01
 -1.2639400e+00
 -2.4684467e+00
  6.8030939e-02
  1.4849951e+00
  5.0385416e-01
 -2.4625625e-02
  5.8255213e-01
 -9.9118692e-01
 -3.1340724e-01
  6.1457247e-01
  5.5448234e-01
  5.5595464e-01
 -5.7666242e-01
  9.4623165e-06
 -5.3754285e-08
 -1.1053467e+00
 -6.6820555e-03
  7.6164238e-02
  1.9763390e+00
 -8.4506345e-01
  2.7613759e-01
 -9.0120934e-02
  2.4397849e-01
 -4.5963582e-01
 -2.4129348e-02
  1.3572767e+00
 -1.4071563e-01
 -3.9340299e-05
 -5.8097774e-03
  4.3594098e-01
  2.5588449e-03
  3.1592023e-01
 -4.2149986e-05
  4.9960067e-06
  1.5714584e-02
 -5.8001181e-04
 -4.3825607e-05
  7.0438129e-03
 -4.7600352e-06
  2.2859326e-06
 -1.5200385e-05
  4.5686451e-05
 -1.1244209e-05
 -1.2991905e-04
  1.2681201e-06
  2.8233795e-05
 -1.2668052e-05
 -2.2368418e-05
 -2.1704527e-05
 -2.8958398e-06
  1.0385751e-05
  7.5366996e-05
 -4.1836483e-05
 -7.8668108e-06
  1.9863728e-05
  3.7999405e-05
 -5.0461977e-06
 -4.3456103e-06
 -4.2474046e-05
  3.1217976e-05
 -9.4695879e-06
 -8.7931239e-06
 -1.9146471e-05
 -2.9207959e-06
  1.2427185e-05
  3.4632410e-07
  9.4295920e-06
  6.5832987e-06
  4.4388771e-06
  5.2207841e-05
 -1.0282953e-05
 -1.8176424e-05
 -6.7295086e-06
 -5.4492921e-06
  1.6908383e-05
  1.5140088e-05
 -3.0892090e-05
 -1.5824409e-06
 -4.5213765e-06
  4.2867156e-05
  2.3116107e-05
 -6.4372951e-05
 -8.9896554e-01
 -2.1329792e+00
  6.2767833e-01
  9.7422320e-01
 -4.9104392e-07
 -1.2886494e-02
 -6.3904249e-06
  4.9582329e-01
  5.5936956e-01
 -2.6493221e-05
 -2.1451038e-05
 -1.3444643e-04
  2.6542577e-06
  2.1486804e-03
  1.7203082e-01
  9.6027124e-01
 -3.3334729e-03
  8.7439263e-01
 -7.4610375e-07
 -3.2063690e-05
 -3.5059053e-01
 -1.6489574e-01
  9.0528166e-01
 -4.0356946e-01
  3.9011282e-01
  4.4751205e-02
 -1.1107650e-01
 -4.4040430e-02
 -7.4647434e-02
  4.4831192e-01
  4.2872097e-07
  1.4399621e-01
 -1.6363870e-04
 -3.6820225e-04
 -1.2316576e-05
  7.7876039e-06
 -2.9923387e-02
  9.7153774e-05
 -1.4598768e-05
 -2.0214271e-05
 -8.2286024e-06
  4.2711843e-05
  7.1104869e-06
 -1.2490091e-06
 -4.6441960e-06
  6.7133783e-06
  1.1417809e-05
 -7.0282258e-06
 -5.9086442e-06
  9.5559676e-07
 -3.0384799e-05
  2.1980337e-05
  6.8981071e-06
  1.6409988e-04
  6.8685677e-06
 -1.3526261e-05
 -3.4145050e-05
 -5.7947593e-05
 -8.0754244e-06
  2.9545611e-06
  3.0982872e-06
  4.1473272e-06
 -1.5021390e-05
 -1.0107480e-05
  3.7100683e-05
  2.0526286e-05
  4.0535092e-06
 -3.3804297e-06
 -2.7718229e-06
  8.6037280e-06
 -5.5929366e-05
 -6.9713114e-06
 -3.9989776e-05
  4.7050587e-05
  7.1102445e-06
  6.6384884e-05
 -1.0345002e-06
  5.7821680e-06
  3.0527972e-05
 -3.2650998e-05
  4.9216715e-06
 -2.0362448e-05
  5.4420634e-06
 -3.0697986e-01
  1.2235543e+00
  1.4347580e-01
  1.2030816e+00
 -3.7647253e-01
 -9.2799383e-01
 -1.3292983e+00
  2.9496428e-01
 -1.9210047e+00
  1.0047737e+00
 -2.0520966e+00
 -1.6254360e-04
  6.1186356e-03
 -1.7349396e+00
 -7.9367749e-02
 -7.0867914e-01
 -6.6909060e-02
 -2.0531619e+00
 -1.0013676e+00
  1.1488724e+00
 -1.5792356e+00
 -5.2492028e-01
 -9.7746097e-02
  1.8836914e-02
  1.0724256e-01
 -3.7386230e-01
  2.4591877e+00
 -1.4425011e+00
 -1.3816115e-02
 -5.2999365e-01
 -7.8222831e-05
  3.2613880e-04
  6.2490553e-01
  1.5393187e+00
 -9.2068084e-02
  2.7079906e-05
  1.4613041e-05
 -1.9660871e-07
 -6.5803784e-01
 -4.5998874e-01
  1.8098854e-01
 -1.3266835e-01
 -1.9421137e-05
 -1.5195883e-05
 -1.3727779e-05
  6.3180873e-05
  9.9616600e-06
  5.5116572e-05
 -1.0642992e-05
  2.1257436e-05
  1.0317919e-05
  2.9803976e-05
  2.4708997e-05
 -6.9534353e-06
  1.2536429e-05
 -5.0680878e-06
 -2.5328443e-05
 -7.9898464e-06
  1.7155589e-05
  2.3097957e-05
  3.4341474e-07
 -7.4115844e-05
 -2.9396568e-05
 -1.6630429e-05
  2.2979653e-05
  2.6484058e-05
 -1.1951327e-05
 -2.0927324e-05
 -2.0826976e-05
  7.6497399e-06
  2.3214654e-05
 -2.2000271e-05
  1.2670489e-07
  1.8877528e-05
 -8.5405472e-06
 -2.2921939e-05
  3.6229494e-08
 -3.2118346e-06
  3.0607334e-05
 -2.3996836e-05
 -1.0716106e-05
  1.8687811e-05
 -2.9107403e-05
  2.8843890e-05
 -2.8508697e-05
 -6.2363382e-05
  6.0078716e-01
 -1.1952603e-01
  3.2748044e-01
  6.8805166e-02
  1.5572936e-02
  6.2748650e-04
  4.8201739e-05
 -3.0386132e-01
  2.1214251e-05
 -2.0251167e-04
 -2.4068987e-01
 -1.5046280e-06
 -1.0753159e-03
  7.7422187e-02
  7.2737575e-01
  1.4065401e-05
  5.6604058e-01
  3.5610375e-01
  3.3601415e-01
 -4.2732394e-01
  1.5768126e-05
  3.0037537e-04
 -1.1765338e+00
 -1.1825864e+00
 -9.5265138e-01
 -5.0051814e-05
  3.3868599e-01
  3.0913310e-02
  2.4871066e-05
  2.4285698e-01
  8.6677946e-06
  2.2694281e-05
  1.2783687e-01
  4.8254842e-06
  2.2167127e-05
  9.0753645e-05
 -4.9340301e-06
  1.4181496e-04
 -1.6992593e-05
 -2.7122347e-05
 -3.2444976e-05
 -2.2084776e-05
 -2.6276442e-05
  5.2146202e-06
  2.5816800e-05
 -8.7069402e-06
 -2.2777342e-05
 -2.9780314e-05
 -1.2345679e-05
 -7.2073039e-05
 -1.7318926e-04
  9.8771934e-06
  8.9236664e-06
  2.3729683e-05
  2.1056463e-05
  7.1234967e-06
 -1.4299968e-05
 -2.1827707e-05
 -2.3314538e-05
 -3.5991518e-06
 -1.5091565e-05
 -2.1191541e-05
 -1.7074231e-05
  8.7979381e-05
 -1.6507625e-05
 -1.7386175e-05
  2.0434059e-06
  1.6870832e-05
  2.5274624e-06
  1.0965336e-05
 -7.0486590e-06
  1.7009559e-05
  2.4868596e-05
 -2.8651397e-05
 -1.7210024e-05
 -5.4295101e-06
 -1.9539088e-05
 -8.5443964e-05
 -5.2220789e-06
 -5.0545168e-06
 -1.4146074e-05
 -2.0189964e-05
  1.1205482e-05
  1.1236472e-05
 -1.3564825e-05
 -2.3044011e-05
  2.0726025e-05
 -1.0421069e-05
  2.1751370e-05
  3.5948851e-05
 -1.9826306e-05
  1.3995077e-07
 -2.4871393e-05
 -2.4470228e-05
  1.0456617e-05
 -1.7647435e-05
  1.8274404e-05
 -2.6560951e-05
 -3.7770390e-06
 -9.8623041e-06
 -2.5753146e-05
 -1.0366185e-04
 -1.4213766e-05
  5.4601922e-05
  1.5936925e-05
 -3.1424781e-05
  5.8414134e-06
 -1.5785432e-05
 -2.6536040e-05
  1.1769313e-05
  1.9641928e-05
 -5.7318284e-06
  1.6556878e-05
 -4.1556200e-06
 -2.9779609e-05
  3.2596594e-07
 -2.6656959e-05
 -2.1752896e-05
  5.2337375e-05
 -1.5518737e-05
  5.1418974e-06
  2.7996425e-06
  1.5440295e-05
 -3.0129408e-05
 -1.6663288e+00
  4.4969752e-01
 -1.8847618e+00
  3.8172507e-01
 -1.6873386e+00
 -7.8074429e-03
  4.4721799e+00
  3.1753013e-01
 -5.4298198e-01
  3.1727532e-01
 -2.3649344e-01
 -6.4051652e-01
  1.5905407e-01
  1.2611369e+00
  7.8788316e-01
 -3.4621310e-01
  4.9059290e-01
  7.6464558e-01
 -3.4169581e+00
  6.1114603e-01
  1.8508569e+00
  5.3546703e-01
 -1.0815682e+00
 -3.2562393e-01
  3.0106714e-01
 -1.9426569e-01
 -1.1928405e+00
  1.1933236e+00
  1.7848810e+00
 -3.0602285e-01
 -5.7601521e-04
  1.2818297e+00
 -1.1954458e+00
 -3.1391647e+00
  2.9720894e-01
 -2.0057307e-01
  8.1793632e-06
  3.7600634e-01
 -3.0353251e-01
 -1.7460974e-05
  3.4164476e-01
 -1.4251097e-04
 -2.6535716e-05
  1.0257757e-05
 -4.4496273e-06
 -1.0913489e-05
  2.8209297e-06
  7.5038456e-06
  1.7266235e-05
 -2.9140581e-05
  2.6866688e-05
 -2.3262697e-05
 -1.8723631e-05
 -2.2101123e-05
  1.1741828e-05
  2.4691986e-05
 -7.5031930e-05
  7.6085626e-06
  1.1200895e-05
  6.1264262e-05
  2.0974214e-05
  2.4253321e-05
  2.2885923e-05
 -2.7249391e-05
  2.3913013e-05
  7.6062941e-05
  1.6725826e-04
 -1.2416696e-05
  2.7126149e-05
  1.5796095e-05
 -7.1868526e-05
 -2.6858535e-05
  1.5150770e-05
  2.4718771e-05
 -8.4987423e-06
 -2.4868892e-05
 -2.4553110e-05
  2.0312593e-05
  2.9396422e-05
 -2.0870191e-05
 -2.7959773e-05
 -2.9136849e-05
 -1.4666110e-05
  1.9393408e-05
  2.2013099e+00
  4.8781559e-01
 -1.3792398e+00
 -2.5955305e+00
 -1.6319430e-02
  1.8147277e+00
  1.4199832e-01
  4.2328194e-01
 -6.4834666e-01
  3.6395866e-02
 -5.4687079e-02
 -3.3072548e-04
  1.1656386e+00
 -1.4229976e-01
  9.9031430e-01
 -9.8290935e-02
  6.0860127e-01
 -2.0886786e+00
  3.3534638e-04
  9.4808865e-01
  4.0755752e-01
  1.1850779e+00
  9.5061898e-02
  5.1399563e-02
 -1.2368225e-01
 -7.4040323e-02
  1.7998470e+00
  1.1616957e+00
  1.4768260e+00
 -6.9482751e-02
  1.4654559e+00
 -4.1057089e-01
  4.4965905e-01
 -1.8293086e-01
  7.4364848e-02
  2.5269164e-05
  1.1715375e-01
 -2.9158497e-01
 -3.1342719e-05
  2.3396770e-03
 -3.1025487e-01
 -7.1747857e-04
  1.1635600e-04
  2.0736576e-05
 -7.8017110e-05
 -2.8590381e-05
  2.0723821e-05
  2.6884170e-05
 -7.6995839e-06
 -8.1280150e-06
 -2.0858155e-05
  1.3616876e-05
 -1.4063509e-06
 -3.0491319e-06
  5.3497331e-07
  2.4914796e-05
  8.9977424e-05
 -1.3321448e-05
  2.7187167e-05
  5.2941296e-06
  1.6349810e-05
  2.9764995e-05
  4.5865560e-05
  2.7023882e-05
 -4.5585435e-07
  2.4237552e-05
  8.9367531e-06
 -3.7721670e-06
  6.3716288e-05
  2.5532734e-05
  2.0623282e-05
 -6.6339885e-06
 -1.5970851e-05
  2.4858338e-05
 -1.2862262e-05
  1.8422350e-05
 -2.2769269e-05
 -4.4842936e-06
 -2.6544429e-05
  3.8556741e-06
 -1.3639866e-05
 -2.2529135e-05
 -1.1939374e-04
  2.4343955e-05
 -2.3422741e-05
 -2.1132991e+00
 -4.8318233e-02
  3.1500599e-01
  1.5180212e+00
 -6.3930325e-05
 -6.7396808e-01
 -7.0147114e-05
 -7.2685260e-05
 -1.2393404e-03
 -2.0997199e-06
 -3.0318881e-05
 -2.7602759e-01
 -1.1099200e-01
 -5.5623466e-01
  8.0237733e-05
  1.5800957e-02
 -9.7052053e-02
  7.9545653e-01
  1.6662889e-05
 -8.9494688e-06
  1.1518111e-01
  4.2510219e-02
 -2.4595822e-05
  9.4203211e-02
  1.6090425e+00
  6.0026103e-01
  3.0631362e-03
 -1.1711783e+00
  4.8806131e-04
 -1.6691341e-05
  5.5363681e-02
 -6.6407084e-01
 -4.0197518e-01
  6.8517697e-01
  1.9099953e-05
 -8.2321194e-06
 -8.8906520e-05
  1.7713232e-05
  1.4704687e-04
 -2.2597855e-05
 -1.9624753e-05
 -1.6021830e-05
 -2.9906556e-05
  8.1096034e-05
 -2.8118382e-07
  7.3553224e-06
 -1.7367158e-06
 -7.4402651e-06
  2.9918971e-05
 -2.0684502e-05
  1.5439271e-05
  6.6062908e-05
  2.2543391e-06
  1.6540884e-05
 -3.1925031e-06
 -6.7849560e-06
 -2.5330946e-05
 -1.8614970e-05
  5.0182452e-06
 -1.6300222e-05
  8.3488712e-06
 -2.5860796e-05
  2.6662805e-05
  3.3050185e-06
  2.7796055e-05
  3.9742521e-05
  2.1267464e-05
  1.0727200e-05
 -8.6421287e-06
  2.4724564e-05
  2.9776187e-05
 -3.8747103e-06
  2.3979324e-05
 -1.0911164e-05
  2.1817402e-07
  2.5807258e-05
 -1.1969692e-05
 -9.7886305e-06
 -1.7156322e-05
  1.6787781e-05
 -1.4331052e-04
  4.2612643e-05
  1.5800202e-05
  7.8813988e-05
 -2.6050277e-04
  1.9853478e-05
  2.7242784e-05
 -5.1353029e-05
 -2.8709292e-05
 -1.3585424e-05
 -4.2434431e-06
  1.2194776e-05
  1.4966186e-05
  7.9019483e-06
 -9.5250616e-06
 -8.8072038e-06
  7.0750766e-06
 -1.3045657e-04
 -1.7162225e-05
  8.0666352e-05
 -1.7687367e-05
 -5.0267035e-06
 -1.0073674e-05
 -1.0121400e-06
  7.0025089e-05
 -1.3573725e-05
 -4.1005474e-05
 -2.5072652e-05
  3.5891410e-06
 -7.9056714e-05
 -2.2069384e-05
 -2.8390235e-05
  2.9058599e-05
 -6.8910260e-05
 -1.2816034e-05
  1.4636907e-05
 -5.8778240e-03
 -1.4486908e-05
  2.4873483e-05
 -1.1709652e-05
  1.2242067e-05
  1.9696990e-05
  3.8867624e-06
 -1.7070293e-05
 -3.8233925e-06
  2.3443300e-01
 -4.6300349e+00
 -5.9118491e-02
 -1.1492803e+00
  6.1559755e-01
  2.4065607e+00
  4.5559454e-01
  9.7479349e-01
 -4.9222022e-02
  2.6468515e+00
  1.8013805e-01
 -4.3234172e+00
  1.0181839e+00
  1.5900573e+00
  5.9546620e-01
 -3.6764127e-04
  7.9884040e-01
 -1.0959615e+00
 -1.4234656e+00
  7.9473519e-01
  9.7816306e-01
  7.0991182e-01
 -3.9804810e-01
  2.0020676e+00
 -7.1677732e-01
 -1.0369486e+00
 -1.3267671e+00
  9.7657502e-01
  8.2330585e-01
  8.1939057e-02
  1.3050731e+00
 -1.0062444e+00
  9.3208081e-01
 -9.1089290e-01
  1.6479176e-01
 -8.4233558e-05
 -2.7177879e-05
 -9.9019462e-01
 -2.8319884e-05
  1.8394605e-05
 -7.8274809e-02
 -5.1919967e-03
  9.3765220e-06
 -1.3806036e-05
 -2.1388978e-05
 -2.1159786e-04
 -8.0618111e-07
  5.2814286e-02
 -1.9793695e-05
 -1.4931783e-04
 -7.7860705e-06
 -4.2708834e-06
  2.9182607e-05
  1.7927949e-05
 -8.1544749e-06
  2.5313026e-05
 -7.1178983e-05
 -2.5285948e-05
  4.2436959e-06
 -9.9532399e-04
 -8.4578678e-05
 -2.0310094e-04
 -6.5242384e-05
 -7.9580357e-05
 -9.0372429e-05
 -2.7067628e-04
 -2.5245702e-04
 -2.1250507e-05
 -1.4663668e-02
 -3.2666834e-05
  1.5989596e-01
 -9.1755928e-06
  7.9967125e-05
  1.0930431e-01
 -4.0407285e-01
  2.1755654e-02
  7.8494893e-05
 -4.3245728e-07
 -8.5387373e-06
  7.6641118e-06
 -2.3150291e-05
  9.9607250e-06
  1.9905368e-05
 -5.2404239e-06
  2.4753157e-05
  3.4991601e-06
  9.8390770e-01
  1.4240000e-05
 -4.8954067e-01
 -1.2749339e-02
 -3.8958656e-06
  1.5600506e-05
 -2.1539747e-05
  2.0864974e-05
 -2.6145839e-05
 -2.4063867e-05
  2.3259387e-05
  4.2249312e-04
  1.1291468e-05
 -3.0160443e-05
 -1.7453962e-05
  2.6454323e-04
 -1.4559002e-01
  2.5332058e-05
  2.7094311e-05
  3.6846411e-01
  6.7580990e-02
 -1.9396211e-06
  3.2861583e-02
 -3.9034814e-01
  4.9477576e-06
  5.1873408e-02
 -1.6739976e-03
  1.2334412e-03
 -1.0826659e-05
 -8.1555609e-06
  2.9139396e-02
 -2.0698864e-05
 -5.1704218e-04
  1.1884510e-05
 -6.8771908e-05
  8.5038417e-05
 -2.1025206e-05
 -7.6206907e-04
  8.3381768e-05
 -1.6988955e-05
 -2.2027449e-05
  6.1388087e-06
  2.1369890e-05
 -9.1682023e-06
  2.0475039e-05
 -1.0992229e-06
  2.6950096e-05
  2.3845809e-05
 -2.4734665e-05
 -1.4960170e-05
 -3.8322731e-05
 -2.0397541e-05
  1.4902114e-05
 -5.9173006e-05
 -2.5868729e-05
  2.0859776e-05
  8.3790695e-07
  3.2153554e-07
 -1.0000012e-05
 -3.5528479e-05
 -1.6481190e-05
 -1.7180553e-05
 -1.6261396e-05
 -1.9300727e-05
 -2.0399188e-05
 -1.2451998e-06
  8.1659218e-06
 -1.1067297e-05
 -1.2538231e-04
  1.1476437e-05
 -7.8925805e-06
  2.4529865e-05
 -1.9909372e-05
  3.0378033e-05
 -1.3335410e-05
 -7.4263285e-06
 -6.3933744e-06
  2.8691415e-05
 -1.3383547e-05
 -2.7082788e-05
 -1.9807059e-05
 -7.8516066e-05
 -8.9973975e-05
 -2.6705373e-05
  2.0870028e-05
  4.7681260e-06
 -8.2856295e-06
  3.3983139e-07
 -1.4553284e-05
 -2.4448467e-05
  1.9000607e-05
  1.6025477e-05
 -1.8551906e-05
  4.6950674e-08
  4.6400328e-07
 -8.2073029e-06
  1.6587977e-05
 -9.0584901e-05
  3.2027390e-05
 -4.7346002e-06
  3.8311162e-05
 -1.2783725e-05
 -5.7646512e-06
 -3.1311160e-06
 -5.8175156e-05
  1.5059415e-05
 -5.5487380e-06
  3.0283209e-05
  2.8467017e-05
 -2.8729941e-05
  1.0895285e-05
  2.5147563e-05
 -1.0038922e-05
 -1.2603225e-05
 -1.0683134e-05
  1.3756872e-05
 -8.5677257e-06
 -7.8438270e-06
 -1.7885415e-06
  1.0915873e-06
  5.9332388e-06
  2.9722072e-05
 -1.5657855e-05
  1.7632628e-05
 -2.8512037e-05
  6.4120909e-06
 -2.9009957e-06
  2.1921860e-05
 -2.5638376e-05
  1.3341144e-05
 -1.5219352e-04
  1.0991692e-05
 -1.5709164e-05
  9.1375805e-06
 -2.7262349e-05
  7.1643262e-05
 -4.8217594e-06
 -5.7425013e-06
  4.9840553e-05
  2.0015141e-05
  1.1875229e-05
 -1.4275406e-05
 -1.0518078e-05
  2.1446129e-05
 -3.6521396e-06
 -8.2583556e-06
  2.8576624e-05
 -2.9381237e-05
  2.9954675e-05
  2.3596618e-05
  6.1184460e-06
 -2.8112940e-05
  3.1020285e-05
 -1.2073933e-05
  1.4479636e-04
  2.4840590e-05
 -2.9760133e-05
  2.8913293e-05
  1.0863068e-05
  7.5551921e-05
 -1.2161755e-05
 -2.1595144e-05
  2.0585525e-05
  1.1690184e-05
 -2.2573620e-05
 -2.9513541e-05
  2.8455068e-05
  4.0566223e-03
  1.0186093e+00
 -4.3273589e-04
 -3.4193853e-03
 -6.2624151e-01
  3.2989245e-02
  1.1404255e-01
  7.9498327e-01
 -2.7613580e-02
 -2.6078653e-05
 -3.3475678e-02
 -5.6728780e-01
  2.4259120e-02
 -1.5090257e-05
  5.5227345e-01
  7.9773867e-04
  2.3610044e-01
  9.0831533e-02
  1.6007262e-01
 -1.7727491e-04
  6.1726314e-01
  6.5215617e-01
 -6.1215833e-05
 -1.9568839e-05
  6.5393724e-02
 -1.2819840e-01
 -3.2293293e-04
  2.4068223e-01
  5.0997943e-01
 -2.0015734e-05
  1.3245413e+00
  6.6006362e-01
  2.1766086e-01
  6.7873329e-02
  1.0563494e-05
 -2.4707240e-05
  2.2268674e-05
 -1.8122144e-05
  1.7074048e-05
  2.8249638e-05
  2.0622469e-05
  1.8990311e-05
  3.5365138e-06
  6.2468840e-05
 -1.4843480e-05
 -1.6052527e-05
 -2.2864087e-06
  2.3889092e-05
 -2.2144195e-05
 -8.8800727e-05
 -2.9539475e-05
  3.3241286e-05
  2.3817274e-05
 -9.3549090e-07
 -2.3741306e-05
 -2.8103879e-05
  1.4873827e-05
  2.3689816e-05
 -4.9272239e-05
 -1.9284078e-06
  5.6393387e-06
 -8.9929941e-05
 -1.3262386e-05
 -5.5835208e-05
  2.4186424e-05
 -1.6771712e-06
 -2.9664330e-05
 -2.5936044e-05
  2.8681638e-05
 -1.2042825e-05
  1.4647843e-05
 -2.2397415e-05
 -8.2627797e-05
  2.9026825e-05
  1.3535545e-05
  2.1395877e-05
  1.8063643e-05
 -5.5603555e-06
  2.8397668e-05
 -1.6756670e-05
 -2.5430509e-05
  1.3100327e-05
 -3.0012936e-05
  2.2148735e-05
 -6.5585279e-01
 -5.3253841e-01
 -2.0714508e-02
  6.0163742e-01
  1.3179951e+00
  1.2301303e-01
 -2.0609312e-05
  7.5044300e-05
  1.2757153e-04
  1.0205730e+00
  8.3300984e-03
  5.3707570e-01
  8.2970873e-06
  5.2665930e-02
  1.0458419e-01
  7.4674532e-02
  4.5601986e-04
  1.4369371e+00
 -5.5850035e-01
  1.2926798e-04
  2.0009050e+00
 -4.5574511e-06
  3.0097068e-05
  1.3458384e+00
  1.6108762e-01
  1.0450801e+00
  3.1433731e-01
  8.2751232e-01
  2.7373824e-01
  1.1458892e-01
  1.4663064e+00
 -5.5288655e-01
  2.6294129e+00
  3.5612430e-02
  2.4198154e-05
 -1.2718776e-04
  3.4566667e-06
 -2.2120286e-05
  9.8454999e-05
  5.2627583e-06
 -2.9461482e-05
  2.7722344e-05
  1.1664621e+00
 -4.0105036e-01
 -6.7993753e-02
 -1.0646447e-01
 -2.9646575e-01
  2.6202666e-02
  1.7629142e-01
  7.9965033e-02
  2.0077405e-05
 -8.0049196e-03
 -4.1650981e-01
 -1.0615874e-01
 -4.5949284e-07
 -1.9742746e-02
  1.6306004e-01
  2.9798731e-01
  6.8150854e-05
  8.1461814e-04
  8.3049899e-04
  3.7584234e-06
  6.3408136e-02
  8.8478770e-04
  8.6794490e-01
  7.0974700e-02
  8.6073154e-01
 -4.0539172e-02
  4.1364335e-02
  3.1434098e-01
  6.4454135e-03
 -8.6091248e-05
 -6.1280924e-01
 -9.4338506e-01
  3.5240445e-01
 -1.9073716e-01
  1.6330209e-06
  2.6007554e-05
 -2.4302253e-05
 -1.7098346e-05
  3.0025212e-05
 -2.3788090e-05
 -1.8835591e-06
 -1.1722900e+00
  1.4187819e-05
 -8.3254881e-06
 -9.3229985e-01
 -3.7979576e-06
  6.4079618e-06
  1.9927031e-05
 -9.9880617e-06
  2.8995015e-05
  1.3948043e-05
  2.9230556e-05
 -6.2974402e-07
  1.7652191e+00
  1.3045241e-01
  2.6910123e-01
 -1.0388038e+00
 -3.4150329e-01
  8.1313701e-06
  6.1145611e-02
  1.9436882e-05
 -8.1277335e-01
 -3.0680967e-05
  6.3303314e-06
 -7.3204857e-01
 -2.8049057e-05
  1.3772508e+00
  1.3370100e-05
 -3.7524143e-01
  2.3445464e-05
 -1.5611223e-06
 -3.1865898e-01
  1.2515549e-04
 -8.0715910e-02
 -1.8359933e-06
 -8.2193974e-06
 -5.4811971e-06
  1.3769677e+00
  2.6824584e-05
  4.2294180e-01
 -4.9326795e-01
  3.9339099e+00
  1.3281699e-05
  8.7435483e-06
  1.9821731e+00
  1.7179848e-06
 -1.0722862e-05
 -1.4373041e-05
  2.1129152e-05
  1.0338300e-05
  1.5321366e-05
 -2.4775492e-05
 -5.6201498e-06
  2.5187407e+00
  6.2592995e-01
 -2.1177568e+00
 -6.8819954e-04
  1.3011740e+00
  1.6511003e-05
 -1.6875516e+00
  8.5771586e-05
  1.1925455e+00
 -2.6345437e-05
 -7.1423510e-06
 -2.3448029e+00
  8.3473307e-05
  2.0236220e+00
  2.5487116e-05
  8.7649673e-01
 -2.1592982e-06
 -5.6249549e-04
  3.1824093e+00
  4.8165351e-01
 -8.4247613e-01
 -1.0964890e-05
  2.8934743e-05
 -5.7167839e-05
 -9.1878664e-01
  1.3685819e-06
  1.0113171e+00
 -1.2157869e+00
  6.8686523e+00
 -1.3007483e+00
  4.0708203e+00
 -1.7408266e+00
 -1.7202288e-01
 -2.6778257e+00
  7.6961100e-01
  1.9235228e-01
  9.0042248e-02
  9.2589694e-01
 -2.7526760e-01
 -3.4945270e-01
 -1.8950903e+00
  7.0540714e-01
  8.5833567e-01
  1.7736690e+00
 -1.0389421e+00
 -6.0327536e-01
  1.2824308e+00
  1.6789569e+00
  1.2713927e+00
 -4.7701901e-01
  3.3032053e+00
  3.1473999e+00
 -1.4474237e-01
 -1.5831451e+00
 -1.8726876e+00
 -1.1969177e-01
 -1.2581152e-01
  5.2127475e-01
 -3.0955281e+00
 -5.5783427e-01
  6.4883393e-01
  2.9889247e-01
 -1.2320068e+00
 -1.7674601e+00
 -1.5859635e-01
  6.8412974e-02
 -2.6036670e-02
  4.2668888e-01
 -3.5164540e+00
 -5.0061903e+00
  4.5186896e-02
  5.1496682e+00
 -3.6104808e+00
 -2.0661767e+00
 -1.4952041e+00
 -2.2094054e+00
  5.7391822e-01
  4.0858686e-01
  2.1200769e+00
 -1.0638672e-01
 -4.9290785e-01
  1.0568489e+00
  4.8730764e+00
  4.7427053e+00
 -7.7747945e-03
 -1.7154686e-02
 -1.4341124e+00
  1.8160691e+00
  1.5585380e+00
 -3.2856283e-01
  4.4939944e-01
 -3.9781779e-01
  1.3906097e-01
 -1.1533815e-01
 -1.2742027e+00
 -1.4555168e+00
  5.6933057e-01
  8.9150077e-01
  2.4088135e+00
  4.5776582e-01
 -1.5560645e-01
 -3.1792697e-01
  2.4016375e-02
  2.4338415e+00
 -4.4083557e+00
 -3.0569997e+00
  7.4851995e+00
  2.9095271e-01
 -1.4569680e-05
  6.3429646e-02
 -3.3832157e+00
 -1.0484134e+00
 -1.2188684e+00
 -1.5980136e+00
 -6.1492908e-01
  7.1836776e-01
 -4.9364698e-01
 -1.3377452e+00
  4.1903844e+00
  1.6785316e+00
  2.4190240e-01
 -6.5844643e-01
  2.5261636e+00
  4.0773463e+00
  2.4428784e-05
  1.1916770e+00
  1.1127585e+00
  1.5184531e+00
  3.6135280e-01
  5.8519948e-01
  1.8185920e+00
 -2.0931680e+00
  7.0930133e-03
 -1.9329806e-01
  8.4766901e-01
 -9.6462190e-01
  5.9632587e-01
  9.8835742e-01
  3.3860736e+00
  3.7217885e-01
 -1.9975654e+00
 -5.9593815e-01
 -1.8587015e+00
 -1.0571529e+00
 -1.1574974e+00
 -3.6917744e+00
  2.2809140e-01
  5.3113148e-05
  1.0425112e+00
  1.8950894e-01
 -2.2402456e+00
  9.2984730e-01
  3.4399584e-03
  1.8438197e+00
 -4.3601602e-02
  2.6563564e-01
 -1.5053006e+00
  3.3643049e-01
 -1.5316187e+00
 -1.7181166e-01
  1.1809777e+00
 -9.2936569e-01
  5.7931352e-01
 -1.0122057e+00
  2.9647794e-01
 -1.8703178e+00
  1.9925230e+00
 -3.2672423e-01
 -1.6894326e+00
  7.8800303e-01
  7.1609277e-01
 -5.6471080e-01
  4.5234820e-01
  4.5268309e-01
  1.5960126e+00
  2.1568289e+00
 -2.6440551e+00
  3.5288241e+00
 -5.8796587e-03
  1.4515361e-01
  1.7768181e-05
  1.6167884e+00
 -7.5587171e-01
  2.6962845e+00
 -7.8784114e-01
 -2.1376595e+00
  2.3163548e+00
  1.2701706e+00
 -3.9670713e+00
 -2.2779150e+00
 -1.7474668e-01
  8.1388450e-01
 -6.3903332e-01
  4.7602239e-01
  1.5644643e-01
 -2.4152520e+00
  4.2439884e-01
  4.5351782e-01
 -5.8091737e-02
  8.1296915e-01
 -7.7035367e-01
 -1.1290188e-01
 -2.7164640e-02
 -7.8321922e-01
  8.7916589e-01
 -1.8977447e+00
  1.6165246e+00
 -2.3655862e-01
 -3.8404286e-01
 -4.7795582e-01
  2.6511850e+00
 -9.5946854e-01
  3.0423427e+00
  1.2443510e+00
 -9.0877175e-01
 -1.2843881e+00
  1.5296886e+00
  1.7968060e+00
  1.3309009e+00
  6.3164580e-01
 -2.6619923e+00
 -2.6844630e-01
 -1.3212470e+00
 -1.5949398e-01
  1.5436932e+00
  2.1494253e+00
 -2.0018589e+00
 -1.1020722e+00
  4.2095527e-01
 -1.5325197e+00
  1.1274299e-03
 -4.7636345e-02
 -2.2766712e+00
 -1.0744013e+00
 -1.5533084e+00
  3.5077545e-01
 -2.4251692e+00
  6.9872403e-01
 -7.8957522e-01
  9.6120590e-01
 -7.4507171e-01
 -3.2515746e-01
 -9.9114203e-01
  2.8047736e+00
  1.0607825e-01
 -1.2144142e+00
  6.8902415e-01
 -3.8718554e-01
  1.8837732e+00
  8.3087909e-01
  3.7257090e-02
  8.0996734e-01
  4.0895924e-01
 -6.2613927e-02
 -1.8882475e+00
  1.2360450e+00
  3.3771724e-01
  4.3466187e-01
 -3.5005448e+00
 -6.0133851e-01
  1.9276482e+00
  7.6882070e-01
 -9.1874987e-01
  1.4260107e+00
  2.2553260e+00
 -1.1705695e-02
  1.8038278e+00
 -1.9109919e+00
  3.9046231e-01
  2.7024989e+00
 -1.0546525e+00
 -5.0930548e-01
  6.1727798e-01
  5.3676856e-01
 -5.6447995e-01
 -2.5224245e-01
  2.4588212e-01
  2.5170667e+00
 -2.9942602e-01
  4.3369800e-01
 -1.0892845e+00
  6.6209972e-01
 -8.9954630e-02
  1.7196771e+00
  2.0034654e+00
 -7.1661592e-01
 -1.7628185e-02
  2.5816991e+00
  5.0496157e-05
 -2.5425153e+00
  1.2452769e+00
 -3.3295267e+00
  2.3385487e+00
  7.6885808e-01
 -4.4937488e-01
  8.2118350e-01
 -5.1102108e-01
  6.0345417e-01
 -6.1646348e-01
 -6.8953860e-01
  1.3825843e+00
 -2.1573107e+00
  7.8652960e-01
 -3.2525370e-01
  3.7923891e-02
 -4.5152169e-01
  1.6044247e+00
 -7.0725733e-01
  1.1498712e+00
  8.8249707e-01
 -3.3325613e-01
 -1.5143427e-01
  1.5213649e-04
  9.0789586e-01
 -7.3053055e-02
 -4.0563647e-02
  8.8783437e-01
 -1.1584384e+00
  2.0215964e+00
 -1.4188644e+00
  2.3246458e+00
 -1.8324100e+00
  1.6150988e+00
 -5.5010909e-01
 -1.7683842e-05
  2.2622616e+00
 -3.4072175e+00
  7.6389468e-01
  2.2512162e+00
  3.1660631e-02
 -1.3525537e+00
 -5.2529597e-01
  3.7576735e-01
 -2.7178311e+00
  2.5588255e+00
  7.9855853e-01
  1.4630640e+00
 -1.0445082e+00
  1.8646666e+00
  9.9462831e-01
  5.1163495e-01
 -1.3718210e-01
  8.8382840e-01
 -2.6956260e-01
  2.0242817e+00
  4.3872800e-01
 -3.4399652e-01
 -9.3889356e-01
  1.8536673e+00
 -6.8761250e-03
  6.5405345e-01
  3.3950207e-01
  5.7330620e-01
 -5.0165117e-02
  5.2981979e-01
 -3.5366377e-01
 -1.7069333e+00
  4.6672314e-01
 -2.1224751e+00
  2.5792468e+00
 -1.0969813e+00
 -1.6889944e+00
  1.1834058e+00
 -1.6267468e+00
  3.3542380e+00
 -6.3569313e-01
  1.1068605e+00
  2.8166404e-01
 -5.7791239e-01
  9.7731030e-01
 -2.5640182e+00
  4.8576207e+00
 -2.1141565e+00
  1.4943900e+00
 -6.5970254e-01
  2.8133998e+00
  2.6990354e+00
 -4.8467928e-01
  5.2946240e-01
 -1.1888030e+00
 -2.3494916e-02
 -8.1241095e-01
  3.1143036e-02
 -2.7329662e+00
 -1.4133892e+00
 -2.8789538e-01
 -3.4362060e-01
 -1.4534130e+00
 -9.8375714e-01
 -2.7610725e-01
 -1.2404325e+00
  2.9248866e-01
 -4.0546823e-01
 -2.3854871e+00
 -8.6578363e-01
  1.6350672e+00
 -5.9738989e-07
  5.9293610e-01
  6.2152094e-01
 -7.6055509e-01
 -8.0937892e-01
  2.5924489e+00
 -3.4868547e-01
  5.6627429e-01
 -1.5685343e+00
 -1.1050830e+00
 -6.4965659e-01
  4.5574540e-01
 -9.9295157e-01
 -3.6204677e+00
  4.2095926e-01
 -2.1611100e-01
 -9.8481603e-02
 -7.2372109e-01
  8.4383744e-01
  8.0607218e-01
 -7.3858416e-01
  2.0772467e+00
 -1.0991760e+00
  1.1264037e+00
 -3.6385346e-02
  1.8308502e+00
 -1.0613948e+00
  4.2618737e-01
  4.0268192e-01
  4.5730796e-01
  6.0746851e-03
  1.0197297e+00
  3.9876279e-01
  4.2698585e-04
  2.0634153e+00
  2.5756145e+00
 -5.3740339e-05
 -9.0981245e-01
 -3.7220949e-01
 -1.6418737e+00
 -1.0145583e+00
  1.0866088e+00
  7.7189678e-01
 -2.2618657e-02
 -1.3694073e+00
 -2.1375957e+00
 -6.1364710e-01
  2.3015199e+00
 -1.0832525e+00
 -1.7134351e+00
 -1.3512875e+00
  9.3982732e-01
 -3.4381032e-01
  2.0050015e-01
 -1.0957916e-01
 -3.9715573e-01
 -2.5126946e-01
  2.6506224e-01
  1.8858733e+00
 -4.3466327e-01
 -1.8883108e-03
  1.4993791e-01
  5.4477018e-01
 -2.4210338e-01
  1.5698855e-01
 -1.4964939e+00
 -7.3721832e-01
  8.2122040e-01
  1.1541134e+00
  7.2713923e-01
  9.3546802e-01
 -2.5112524e+00
 -1.2444279e-01
 -1.2330092e+00
 -4.7862220e-01
  9.6762407e-01
  2.8230935e-02
  8.8156432e-01
  2.3654926e+00
 -7.3162246e-01
 -1.2002149e+00
 -3.9233592e-01
  9.3759906e-01
 -9.0199697e-01
 -2.6299125e-01
 -1.5910931e-01
 -9.7549468e-01
  7.9546481e-01
 -1.8571778e-01
 -4.3623302e-02
  9.6147585e-01
 -4.7356763e-01
 -1.8793204e+00
  2.6999837e-01
  1.1758946e+00
 -9.5461529e-01
 -9.9626797e-01
  4.6525348e-02
  9.8708850e-01
 -1.0376807e+00
 -3.8599885e-01
 -4.5481496e+00
  1.2282810e-01
  8.5329401e-01
 -3.0089180e+00
 -1.2600601e+00
  6.1466050e-01
 -3.0863208e-01
 -1.2342257e+00
  1.4949789e+00
  2.9041772e+00
 -6.7339820e-01
  3.4911653e-01
  6.0233074e-01
  1.3561832e+00
  6.6174877e-01
 -1.6307952e+00
 -2.0662198e+00
 -6.3082385e-01
 -2.8849140e-01
  3.7325421e-01
 -1.0491884e-01
 -1.1493100e+00
 -1.0260425e+00
  1.2948869e+00
  1.3983719e+00
  1.5755272e+00
  8.8588369e-01
 -1.6496911e+00
  1.3847320e+00
  1.0040796e+00
  8.0311865e-01
 -3.6643688e-02
  3.2703069e-01
  4.2676273e-01
  2.7767006e-02
  1.3550307e-01
  6.9815526e-03
  6.9815526e-03
  6.9815526e-03
  6.9815526e-03
  6.9815526e-03
  6.9815526e-03
  6.9815526e-03
  3.9713196e-02
  3.9713196e-02
  3.9713196e-02
  3.9713196e-02
  3.9713196e-02
  3.9713196e-02
  3.9713196e-02
  2.5253922e-02
  2.5253922e-02
  2.5253922e-02
  2.5253922e-02
  2.5253922e-02
  2.5253922e-02
  2.5253922e-02
  1.5170885e-02
  1.5170885e-02
  1.5170885e-02
  1.5170885e-02
  1.5170885e-02
  1.5170885e-02
  1.5170885e-02
  6.3743768e-03
  6.3743768e-03
  6.3743768e-03
  6.3743768e-03
  6.3743768e-03
  6.3743768e-03
  6.3743768e-03
  1.0214864e-02
  1.0214864e-02
  1.0214864e-02
  1.0214864e-02
  1.0214864e-02
  1.0214864e-02
  1.0214864e-02
